  DATE: 2018-03-30 CONTRIBUTOR: Xiaowang Zhou xzhou@sandia.gov and Lucas Hale lucas.hale@nist.gov CITATION: X. W. Zhou, R. A. Johnson, H. N. G. Wadley, Phys. Rev. B, 69, 144113(2004)
  Generated from Zhou04_create_v2.f
  Fixes precision issues with older version
    2 Al Cu                   
 2000  0.5002501250625312E-01 2000  0.3203566156274691E-02  0.6403928746393108E+01
   13     26.982         4.0502    fcc     
  0.0000000000000000E+00 -0.1887182008793253E-01 -0.3765971565642379E-01 -0.5636486596414358E-01 -0.7498745026976250E-01
 -0.9352764783194933E-01 -0.1119856379093751E+00 -0.1303615997607097E+00 -0.1486557126446229E+00 -0.1668681558197842E+00
 -0.1849991085448648E+00 -0.2030487500785336E+00 -0.2210172596794613E+00 -0.2389048166063175E+00 -0.2567116001177721E+00
 -0.2744377894724956E+00 -0.2920835639291572E+00 -0.3096491027464279E+00 -0.3271345851829766E+00 -0.3445401904974736E+00
 -0.3618660979485897E+00 -0.3791124867949944E+00 -0.3962795362953575E+00 -0.4133674257083491E+00 -0.4303763342926390E+00
 -0.4473064413068976E+00 -0.4641579260097947E+00 -0.4809309676600001E+00 -0.4976257455161844E+00 -0.5142424388370165E+00
 -0.5307812268811675E+00 -0.5472422889073071E+00 -0.5636258041741046E+00 -0.5799319519402311E+00 -0.5961609114643553E+00
 -0.6123128620051483E+00 -0.6283879828212799E+00 -0.6443864531714196E+00 -0.6603084523142380E+00 -0.6761541595084041E+00
 -0.6919237540125892E+00 -0.7076174150854621E+00 -0.7232353219856938E+00 -0.7387776539719534E+00 -0.7542445903029117E+00
 -0.7696363102372384E+00 -0.7849529930336030E+00 -0.8001948179506762E+00 -0.8153619642471270E+00 -0.8304546111816273E+00
 -0.8454729380128443E+00 -0.8604171239994511E+00 -0.8752873484001149E+00 -0.8900837904735084E+00 -0.9048066294782988E+00
 -0.9194560446731581E+00 -0.9340322153167553E+00 -0.9485353206677610E+00 -0.9629655399848444E+00 -0.9773230525266761E+00
 -0.9916080375519263E+00 -0.1005820674319264E+01 -0.1019961142087361E+01 -0.1034029620114886E+01 -0.1048026287660508E+01
 -0.1061951323982899E+01 -0.1075804908340728E+01 -0.1089587219992666E+01 -0.1103298438197381E+01 -0.1116938742213544E+01
 -0.1130508311299826E+01 -0.1144007324714895E+01 -0.1157435961717423E+01 -0.1170794401566078E+01 -0.1184082823519532E+01
 -0.1197301406836453E+01 -0.1210450330775514E+01 -0.1223529774595381E+01 -0.1236539917554727E+01 -0.1249480938912221E+01
 -0.1262353017926533E+01 -0.1275156333856333E+01 -0.1287891065960291E+01 -0.1300557393497077E+01 -0.1313155495725360E+01
 -0.1325685551903812E+01 -0.1338147741291102E+01 -0.1350542243145899E+01 -0.1362869236726875E+01 -0.1375128901292698E+01
 -0.1387321416102040E+01 -0.1399446960413569E+01 -0.1411505713485957E+01 -0.1423497854577871E+01 -0.1435423562947984E+01
 -0.1447283017854965E+01 -0.1459076398557484E+01 -0.1470803884314210E+01 -0.1482465654383814E+01 -0.1494061888024967E+01
 -0.1505592764496337E+01 -0.1517058463056595E+01 -0.1528459162964411E+01 -0.1539795043478454E+01 -0.1551066283857396E+01
 -0.1562273063359905E+01 -0.1573415561244652E+01 -0.1584493956770306E+01 -0.1595508429195539E+01 -0.1606459157779019E+01
 -0.1617346321779417E+01 -0.1628170100455403E+01 -0.1638930673065646E+01 -0.1649628218868817E+01 -0.1660262917123585E+01
 -0.1670834947088622E+01 -0.1681344488022597E+01 -0.1691791719184178E+01 -0.1702176819832038E+01 -0.1712499969224845E+01
 -0.1722761346621270E+01 -0.1732961131279982E+01 -0.1743099502459653E+01 -0.1753176639418950E+01 -0.1763192721416545E+01
 -0.1773147927711109E+01 -0.1783042437561309E+01 -0.1792876430225817E+01 -0.1802650084963302E+01 -0.1812363581032436E+01
 -0.1822017097691887E+01 -0.1831610814200325E+01 -0.1841144909816421E+01 -0.1850619563798845E+01 -0.1860034955406266E+01
 -0.1869391263897354E+01 -0.1878688668530781E+01 -0.1887927348565214E+01 -0.1897107483259325E+01 -0.1906229251871784E+01
 -0.1915292833661260E+01 -0.1924298407886424E+01 -0.1933246153805944E+01 -0.1942136250678493E+01 -0.1950968877762739E+01
 -0.1959744214317352E+01 -0.1968462439601003E+01 -0.1977123732872361E+01 -0.1985728273390096E+01 -0.1994276240412879E+01
 -0.2002767813199380E+01 -0.2011203171008267E+01 -0.2019582493098213E+01 -0.2027905958727885E+01 -0.2036173747155955E+01
 -0.2044386037641092E+01 -0.2052543009441966E+01 -0.2060644841817248E+01 -0.2068691714025607E+01 -0.2076683805325714E+01
 -0.2084621294976238E+01 -0.2092504362235849E+01 -0.2100333186363217E+01 -0.2108107946617013E+01 -0.2115828822255905E+01
 -0.2123495992538565E+01 -0.2131109636723663E+01 -0.2138669934069867E+01 -0.2146177063835849E+01 -0.2153631205280278E+01
 -0.2161032537661825E+01 -0.2168381240239158E+01 -0.2175677492270949E+01 -0.2182921473015867E+01 -0.2190113361732581E+01
 -0.2197253337679764E+01 -0.2204341580116083E+01 -0.2211378268300210E+01 -0.2218363581490814E+01 -0.2225297698946564E+01
 -0.2232180799926132E+01 -0.2239013063688188E+01 -0.2245794669491400E+01 -0.2252525796594439E+01 -0.2259206624255975E+01
 -0.2265837331734679E+01 -0.2272418098289219E+01 -0.2278949103178266E+01 -0.2285430525660491E+01 -0.2291862544994563E+01
 -0.2298245340439152E+01 -0.2304579091252928E+01 -0.2310863976694560E+01 -0.2317100176022720E+01 -0.2323287868496077E+01
 -0.2329427233373301E+01 -0.2335518449913061E+01 -0.2341561697374029E+01 -0.2347557155014874E+01 -0.2353505002094265E+01
 -0.2359405417870874E+01 -0.2365258581603370E+01 -0.2371064672550423E+01 -0.2376823869970702E+01 -0.2382536353122878E+01
 -0.2388202301265621E+01 -0.2393821893657602E+01 -0.2399395309557488E+01 -0.2404922728223952E+01 -0.2410404328915663E+01
 -0.2415840290891291E+01 -0.2421230793409505E+01 -0.2426576015728976E+01 -0.2431876137108374E+01 -0.2437131336806370E+01
 -0.2442341794081631E+01 -0.2447507688192830E+01 -0.2452629198398635E+01 -0.2457706503957718E+01 -0.2462739784128747E+01
 -0.2467729218170393E+01 -0.2472674985341325E+01 -0.2477577264900214E+01 -0.2482436236105731E+01 -0.2487252078216543E+01
 -0.2492024970491323E+01 -0.2496755092188739E+01 -0.2501442622567462E+01 -0.2506087740886162E+01 -0.2510690626403508E+01
 -0.2515251458378172E+01 -0.2519770416068821E+01 -0.2524247678734127E+01 -0.2528683425632760E+01 -0.2533077836023390E+01
 -0.2537431089164686E+01 -0.2541743364315320E+01 -0.2546014840733959E+01 -0.2550245697679275E+01 -0.2554436114409938E+01
 -0.2558586270184617E+01 -0.2562696344261983E+01 -0.2566766515900706E+01 -0.2570796964359455E+01 -0.2574787868896901E+01
 -0.2578739408771713E+01 -0.2582651763242562E+01 -0.2586525111568117E+01 -0.2590359633007050E+01 -0.2594155506818028E+01
 -0.2597912912259723E+01 -0.2601632028590804E+01 -0.2605313035069942E+01 -0.2608956110955806E+01 -0.2612561435507067E+01
 -0.2616129187982395E+01 -0.2619659547640458E+01 -0.2623152693739929E+01 -0.2626608805539476E+01 -0.2630028062297769E+01
 -0.2633410643273478E+01 -0.2636756727725274E+01 -0.2640066494911826E+01 -0.2643340124091805E+01 -0.2646577794523881E+01
 -0.2649779685466722E+01 -0.2652945976179000E+01 -0.2656076845919384E+01 -0.2659172473946545E+01 -0.2662233039519152E+01
 -0.2665258721895875E+01 -0.2668249700335385E+01 -0.2671206154096351E+01 -0.2674128262437443E+01 -0.2677016204617332E+01
 -0.2679870159894687E+01 -0.2682690307528178E+01 -0.2685476826776475E+01 -0.2688229896898249E+01 -0.2690949697152169E+01
 -0.2693636406796905E+01 -0.2696290205091127E+01 -0.2698911271293506E+01 -0.2701499784662711E+01 -0.2704055924457412E+01
 -0.2706579869936279E+01 -0.2709071800357983E+01 -0.2711531894981193E+01 -0.2713960333064578E+01 -0.2716357293866810E+01
 -0.2718722956646558E+01 -0.2721057500662493E+01 -0.2723361105173283E+01 -0.2725633949437600E+01 -0.2727876212714113E+01
 -0.2730088074261491E+01 -0.2732269713338407E+01 -0.2734421309203527E+01 -0.2736543041115524E+01 -0.2738635088333068E+01
 -0.2740697630114827E+01 -0.2742730845719473E+01 -0.2744734914405674E+01 -0.2746710015432102E+01 -0.2748656328057425E+01
 -0.2750574031540315E+01 -0.2752463305139440E+01 -0.2754324328113471E+01 -0.2756157279721079E+01 -0.2757962339220933E+01
 -0.2759739685871703E+01 -0.2761489498932058E+01 -0.2763211957660670E+01 -0.2764907241316207E+01 -0.2766575529157340E+01
 -0.2768217000442739E+01 -0.2769831834431074E+01 -0.2771420210381016E+01 -0.2772982307551233E+01 -0.2774518305200396E+01
 -0.2776028382587175E+01 -0.2777512718970240E+01 -0.2778971493608260E+01 -0.2780404885759907E+01 -0.2781813074683849E+01
 -0.2783196239638758E+01 -0.2784554559883302E+01 -0.2785888214676151E+01 -0.2787197383275977E+01 -0.2788482244941449E+01
 -0.2789742978931236E+01 -0.2790979764504009E+01 -0.2792192780918438E+01 -0.2793382207433193E+01 -0.2794548223306943E+01
 -0.2795691007798360E+01 -0.2796810740166112E+01 -0.2797907599668870E+01 -0.2798981765565303E+01 -0.2800033417114083E+01
 -0.2801062733573878E+01 -0.2802069894203358E+01 -0.2803055078261195E+01 -0.2804018465006057E+01 -0.2804960233696615E+01
 -0.2805880563591538E+01 -0.2806779633949497E+01 -0.2807657288118544E+01 -0.2808514386633704E+01 -0.2809350806265599E+01
 -0.2810166766574195E+01 -0.2810962487119458E+01 -0.2811738187461353E+01 -0.2812494087159846E+01 -0.2813230405774902E+01
 -0.2813947362866488E+01 -0.2814645177994567E+01 -0.2815324070719107E+01 -0.2815984260600072E+01 -0.2816625967197429E+01
 -0.2817249410071143E+01 -0.2817854808781179E+01 -0.2818442382887502E+01 -0.2819012351950079E+01 -0.2819564935528876E+01
 -0.2820100353183856E+01 -0.2820618824474988E+01 -0.2821120568962235E+01 -0.2821605806205563E+01 -0.2822074755764938E+01
 -0.2822527637200326E+01 -0.2822964670071691E+01 -0.2823386073939001E+01 -0.2823792068362220E+01 -0.2824182872901313E+01
 -0.2824558707116247E+01 -0.2824919790566986E+01 -0.2825266342813498E+01 -0.2825598583415746E+01 -0.2825916731933697E+01
 -0.2826221007927316E+01 -0.2826511630956569E+01 -0.2826788820581421E+01 -0.2827052796361838E+01 -0.2827303777857786E+01
 -0.2827541984629229E+01 -0.2827767636236135E+01 -0.2827980952238467E+01 -0.2828182152196193E+01 -0.2828371455669276E+01
 -0.2828549082217684E+01 -0.2828715251401381E+01 -0.2828870182780333E+01 -0.2829014095914506E+01 -0.2829147210363865E+01
 -0.2829269745688376E+01 -0.2829381921448004E+01 -0.2829483957202715E+01 -0.2829576072512475E+01 -0.2829658486937249E+01
 -0.2829731420037002E+01 -0.2829795091371700E+01 -0.2829849720501310E+01 -0.2829895526985795E+01 -0.2829932730385122E+01
 -0.2829961550259258E+01 -0.2829982206168166E+01 -0.2829994917671812E+01 -0.2829999904330164E+01 -0.2829997385703184E+01
 -0.2829987581350840E+01 -0.2829970710833097E+01 -0.2829946993709921E+01 -0.2829916649541277E+01 -0.2829879897887130E+01
 -0.2829836958307446E+01 -0.2829788050362191E+01 -0.2829733393611331E+01 -0.2829673207614830E+01 -0.2829607711932656E+01
 -0.2829537126124771E+01 -0.2829461669751144E+01 -0.2829381562371739E+01 -0.2829297023546522E+01 -0.2829208272835458E+01
 -0.2829115529798512E+01 -0.2829019013995652E+01 -0.2828918944986841E+01 -0.2828815542332046E+01 -0.2828709025591233E+01
 -0.2828599614324366E+01 -0.2828487528091411E+01 -0.2828372986452335E+01 -0.2828256208967102E+01 -0.2828137415195678E+01
 -0.2828016824698028E+01 -0.2827894657034119E+01 -0.2827771131763916E+01 -0.2827646468447383E+01 -0.2827520886644488E+01
 -0.2827394605915195E+01 -0.2827267845819471E+01 -0.2827140825917280E+01 -0.2827013765768588E+01 -0.2826886884933361E+01
 -0.2826760402971565E+01 -0.2826634539443164E+01 -0.2826509513908125E+01 -0.2826385545926412E+01 -0.2826262855057993E+01
 -0.2826141660862831E+01 -0.2826022182900894E+01 -0.2825904640732146E+01 -0.2825789253916553E+01 -0.2825676242014080E+01
 -0.2825565824584693E+01 -0.2825458221188358E+01 -0.2825353651385040E+01 -0.2825252334734705E+01 -0.2825154490797318E+01
 -0.2825060339132845E+01 -0.2824970099301252E+01 -0.2824883990862503E+01 -0.2824802233376566E+01 -0.2824725046403404E+01
 -0.2824652649502985E+01 -0.2824585262235273E+01 -0.2824523104160233E+01 -0.2824466394837832E+01 -0.2824415353828035E+01
 -0.2824367138912260E+01 -0.2824312398794654E+01 -0.2824249724038089E+01 -0.2824179138653558E+01 -0.2824100666530437E+01
 -0.2824014331437358E+01 -0.2823920157023067E+01 -0.2823818166817277E+01 -0.2823708384231507E+01 -0.2823590832559928E+01
 -0.2823465534980179E+01 -0.2823332514554199E+01 -0.2823191794229034E+01 -0.2823043396837646E+01 -0.2822887345099709E+01
 -0.2822723661622404E+01 -0.2822552368901203E+01 -0.2822373489320643E+01 -0.2822187045155101E+01 -0.2821993058569554E+01
 -0.2821791551620337E+01 -0.2821582546255895E+01 -0.2821366064317522E+01 -0.2821142127540100E+01 -0.2820910757552832E+01
 -0.2820671975879959E+01 -0.2820425803941484E+01 -0.2820172263053878E+01 -0.2819911374430788E+01 -0.2819643159183733E+01
 -0.2819367638322797E+01 -0.2819084832757320E+01 -0.2818794763296568E+01 -0.2818497450650417E+01 -0.2818192915430020E+01
 -0.2817881178148464E+01 -0.2817562259221433E+01 -0.2817236178967855E+01 -0.2816902957610554E+01 -0.2816562615276882E+01
 -0.2816215171999358E+01 -0.2815860647716299E+01 -0.2815499062272440E+01 -0.2815130435419553E+01 -0.2814754786817065E+01
 -0.2814372136032656E+01 -0.2813982502542876E+01 -0.2813585905733726E+01 -0.2813182364901267E+01 -0.2812771899252196E+01
 -0.2812354527904432E+01 -0.2811930269887696E+01 -0.2811499144144084E+01 -0.2811061169528630E+01 -0.2810616364809874E+01
 -0.2810164748670422E+01 -0.2809706339707493E+01 -0.2809241156433478E+01 -0.2808769217276475E+01 -0.2808290540580837E+01
 -0.2807805144607706E+01 -0.2807313047535540E+01 -0.2806814267460645E+01 -0.2806308822397697E+01 -0.2805796730280259E+01
 -0.2805278008961294E+01 -0.2804752676213681E+01 -0.2804220749730712E+01 -0.2803682247126601E+01 -0.2803137185936978E+01
 -0.2802585583619382E+01 -0.2802027457553756E+01 -0.2801462825042924E+01 -0.2800891703313079E+01 -0.2800314109514260E+01
 -0.2799730060720825E+01 -0.2799139573931919E+01 -0.2798542666071945E+01 -0.2797939353991022E+01 -0.2797329654465450E+01
 -0.2796713584198156E+01 -0.2796091159819155E+01 -0.2795462397885993E+01 -0.2794827314884194E+01 -0.2794185927227697E+01
 -0.2793538251259299E+01 -0.2792884303251085E+01 -0.2792224099404861E+01 -0.2791557655852580E+01 -0.2790884988656765E+01
 -0.2790206113810933E+01 -0.2789521047240008E+01 -0.2788829804800738E+01 -0.2788132402282107E+01 -0.2787428855405737E+01
 -0.2786719179826301E+01 -0.2786003391131914E+01 -0.2785281504844543E+01 -0.2784553536420388E+01 -0.2783819501250291E+01
 -0.2783079414660109E+01 -0.2782333291911113E+01 -0.2781581148200359E+01 -0.2780822998661081E+01 -0.2780058858363059E+01
 -0.2779288742312996E+01 -0.2778512665454890E+01 -0.2777730642670406E+01 -0.2776942688779234E+01 -0.2776148818539461E+01
 -0.2775349046647924E+01 -0.2774543387740574E+01 -0.2773731856392827E+01 -0.2772914467119916E+01 -0.2772091234377245E+01
 -0.2771262172560732E+01 -0.2770427296007156E+01 -0.2769586618994495E+01 -0.2768740155742269E+01 -0.2767887920411878E+01
 -0.2767029927106933E+01 -0.2766166189873590E+01 -0.2765296722700875E+01 -0.2764421539521019E+01 -0.2763540654209777E+01
 -0.2762654080586748E+01 -0.2761761832415703E+01 -0.2760863923404894E+01 -0.2759960367207372E+01 -0.2759051177421304E+01
 -0.2758136367590276E+01 -0.2757215951203607E+01 -0.2756289941696653E+01 -0.2755358352451111E+01 -0.2754421196795318E+01
 -0.2753478488004559E+01 -0.2752530239301350E+01 -0.2751576463855746E+01 -0.2750617174785629E+01 -0.2749652385156997E+01
 -0.2748682107984255E+01 -0.2747706356230503E+01 -0.2746725142807816E+01 -0.2745738480577532E+01 -0.2744746382350527E+01
 -0.2743748860887503E+01 -0.2742745928899248E+01 -0.2741737599046929E+01 -0.2740723883942353E+01 -0.2739704796148241E+01
 -0.2738680348178498E+01 -0.2737650552498478E+01 -0.2736615421525250E+01 -0.2735574967627860E+01 -0.2734529203127595E+01
 -0.2733478140298240E+01 -0.2732421791366334E+01 -0.2731360168511433E+01 -0.2730293283866354E+01 -0.2729221149517436E+01
 -0.2728143777504787E+01 -0.2727061179822531E+01 -0.2725973368419057E+01 -0.2724880355197266E+01 -0.2723782152014814E+01
 -0.2722678770684348E+01 -0.2721570222973755E+01 -0.2720456520606396E+01 -0.2719337675261343E+01 -0.2718213698573616E+01
 -0.2717084602134418E+01 -0.2715950397491361E+01 -0.2714811096148703E+01 -0.2713666709567574E+01 -0.2712517249166204E+01
 -0.2711362726320152E+01 -0.2710203152362521E+01 -0.2709038538584195E+01 -0.2707868896234046E+01 -0.2706694236519163E+01
 -0.2705514570605068E+01 -0.2704329909615933E+01 -0.2703140264634793E+01 -0.2701945646703764E+01 -0.2700746066824252E+01
 -0.2699541535957166E+01 -0.2698332065023129E+01 -0.2697117664902682E+01 -0.2695898346436494E+01 -0.2694674120425569E+01
 -0.2693444997631446E+01 -0.2692210988776404E+01 -0.2690972104543665E+01 -0.2689728355577592E+01 -0.2688479752483887E+01
 -0.2687226305829793E+01 -0.2685968026144282E+01 -0.2684704923918261E+01 -0.2683437009604754E+01 -0.2682164293619103E+01
 -0.2680886786339156E+01 -0.2679604498105456E+01 -0.2678317439221431E+01 -0.2677025619953580E+01 -0.2675729050531660E+01
 -0.2674427741148871E+01 -0.2673121701962041E+01 -0.2671810943091806E+01 -0.2670495474622792E+01 -0.2669175306603796E+01
 -0.2667850449047966E+01 -0.2666520911932976E+01 -0.2665186705201206E+01 -0.2663847838759913E+01 -0.2662504322481412E+01
 -0.2661156166203244E+01 -0.2659803379728350E+01 -0.2658445972825242E+01 -0.2657083955228173E+01 -0.2655717336637306E+01
 -0.2654346126718885E+01 -0.2652970335105395E+01 -0.2651589971395734E+01 -0.2650205045155372E+01 -0.2648815565916523E+01
 -0.2647421543178300E+01 -0.2646022986406878E+01 -0.2644619905035657E+01 -0.2643212308465423E+01 -0.2641800206064498E+01
 -0.2640383607168911E+01 -0.2638962521082540E+01 -0.2637536957077281E+01 -0.2636106924393192E+01 -0.2634672432238653E+01
 -0.2633233489790518E+01 -0.2631790106194264E+01 -0.2630342290564143E+01 -0.2628890051983333E+01 -0.2627433399504089E+01
 -0.2625972342147884E+01 -0.2624506888905563E+01 -0.2623037048737487E+01 -0.2621562830573677E+01 -0.2620084243313960E+01
 -0.2618601295828113E+01 -0.2617113996956004E+01 -0.2615622355507733E+01 -0.2614126380263777E+01 -0.2612626079975126E+01
 -0.2611121463363426E+01 -0.2609612539121111E+01 -0.2608099315911549E+01 -0.2606581802369171E+01 -0.2605060007099612E+01
 -0.2603533938679845E+01 -0.2602003605658312E+01 -0.2600469016555061E+01 -0.2598930179861877E+01 -0.2597387104042418E+01
 -0.2595839797532335E+01 -0.2594288268739416E+01 -0.2592732526043708E+01 -0.2591172577797642E+01 -0.2589608432326170E+01
 -0.2588040097926886E+01 -0.2586467582870156E+01 -0.2584890895399238E+01 -0.2583310043730414E+01 -0.2581725036053108E+01
 -0.2580135880530014E+01 -0.2578542585297216E+01 -0.2576945158464310E+01 -0.2575343608114528E+01 -0.2573737942304853E+01
 -0.2572128169066145E+01 -0.2570514296403256E+01 -0.2568896332295151E+01 -0.2567274284695022E+01 -0.2565648161530409E+01
 -0.2564017970703315E+01 -0.2562383720090319E+01 -0.2560745417542697E+01 -0.2559103070886529E+01 -0.2557456687922818E+01
 -0.2555806276427600E+01 -0.2554151844152059E+01 -0.2552493398822637E+01 -0.2550830948141142E+01 -0.2549164499784867E+01
 -0.2547494061406687E+01 -0.2545819640635184E+01 -0.2544141245074738E+01 -0.2542458882305651E+01 -0.2540772559884242E+01
 -0.2539082285342960E+01 -0.2537388066190488E+01 -0.2535689909911850E+01 -0.2533987823968515E+01 -0.2532281815798497E+01
 -0.2530571892816468E+01 -0.2528858062413851E+01 -0.2527140331958929E+01 -0.2525418708796942E+01 -0.2523693200250195E+01
 -0.2521963813618152E+01 -0.2520230556177539E+01 -0.2518493435182443E+01 -0.2516752457864413E+01 -0.2515007631432554E+01
 -0.2513258963073629E+01 -0.2511506459952155E+01 -0.2509750129210499E+01 -0.2507989977968975E+01 -0.2506226013325940E+01
 -0.2504458242357890E+01 -0.2502686672119550E+01 -0.2500911309643973E+01 -0.2499132161942633E+01 -0.2497349236005516E+01
 -0.2495562538801215E+01 -0.2493772077277018E+01 -0.2491977858359005E+01 -0.2490179888952134E+01 -0.2488378175940333E+01
 -0.2486572726186595E+01 -0.2484763546533059E+01 -0.2482950643801104E+01 -0.2481134024791436E+01 -0.2479313696284180E+01
 -0.2477489665038959E+01 -0.2475661937794993E+01 -0.2473830521271172E+01 -0.2471995422166154E+01 -0.2470156647158442E+01
 -0.2468314202906476E+01 -0.2466468096048714E+01 -0.2464618333203714E+01 -0.2462764920970224E+01 -0.2460907865927260E+01
 -0.2459047174634192E+01 -0.2457182853630826E+01 -0.2455314909437483E+01 -0.2453443348555082E+01 -0.2451568177465226E+01
 -0.2449689402630276E+01 -0.2447807030493435E+01 -0.2445921067478825E+01 -0.2444031519991569E+01 -0.2442138394417870E+01
 -0.2440241697125086E+01 -0.2438341434461814E+01 -0.2436437612757961E+01 -0.2434530238324828E+01 -0.2432619317455178E+01
 -0.2430704856423326E+01 -0.2428786861485199E+01 -0.2426865338878425E+01 -0.2424940294822401E+01 -0.2423011735518367E+01
 -0.2421079667149489E+01 -0.2419144095880924E+01 -0.2417205027859894E+01 -0.2415262469215767E+01 -0.2413316426060123E+01
 -0.2411366904486829E+01 -0.2409413910572109E+01 -0.2407457450374620E+01 -0.2405497529935518E+01 -0.2403534155278535E+01
 -0.2401567332410043E+01 -0.2399597067319131E+01 -0.2397623365977667E+01 -0.2395646234340378E+01 -0.2393665678344909E+01
 -0.2391681703911896E+01 -0.2389694316945037E+01 -0.2387703523331155E+01 -0.2385709328940272E+01 -0.2383711739625666E+01
 -0.2381710761223952E+01 -0.2379706399555138E+01 -0.2377698660422693E+01 -0.2375687549613619E+01 -0.2373673072898509E+01
 -0.2371655236031617E+01 -0.2369634044750921E+01 -0.2367609504778191E+01 -0.2365581621819048E+01 -0.2363550401563031E+01
 -0.2361515849683662E+01 -0.2359477971838505E+01 -0.2357436773669235E+01 -0.2355392260801696E+01 -0.2353344438845963E+01
 -0.2351293313396409E+01 -0.2349238890031763E+01 -0.2347181174315171E+01 -0.2345120171794258E+01 -0.2343055888001192E+01
 -0.2340988328452737E+01 -0.2338917498650321E+01 -0.2336843404080093E+01 -0.2334766050212978E+01 -0.2332685442504748E+01
 -0.2330601586396066E+01 -0.2328514487312557E+01 -0.2326424150664860E+01 -0.2324330581848687E+01 -0.2322233786244885E+01
 -0.2320133769219487E+01 -0.2318030536123772E+01 -0.2315924092294325E+01 -0.2313814443053090E+01 -0.2311701593707427E+01
 -0.2309585549550170E+01 -0.2307466315859679E+01 -0.2305343897899901E+01 -0.2303218300920419E+01 -0.2301089530156513E+01
 -0.2298957590829211E+01 -0.2296822488145347E+01 -0.2294684227297606E+01 -0.2292542813464594E+01 -0.2290398251810874E+01
 -0.2288250547487033E+01 -0.2286099705629729E+01 -0.2283945731361744E+01 -0.2281788629792036E+01 -0.2279628406015797E+01
 -0.2277465065114496E+01 -0.2275298612155941E+01 -0.2273129052194321E+01 -0.2270956390270263E+01 -0.2268780631410884E+01
 -0.2266601780629838E+01 -0.2264419842927369E+01 -0.2262234823290357E+01 -0.2260046726692378E+01 -0.2257855558093745E+01
 -0.2255661322441560E+01 -0.2253464024669763E+01 -0.2251263669699185E+01 -0.2249060262437590E+01 -0.2246853807779730E+01
 -0.2244644310607393E+01 -0.2242431775789442E+01 -0.2240216208181879E+01 -0.2237997612627879E+01 -0.2235775993957842E+01
 -0.2233551356989445E+01 -0.2231323706527680E+01 -0.2229093047364910E+01 -0.2226859384280908E+01 -0.2224622722042909E+01
 -0.2222383065405655E+01 -0.2220140419111436E+01 -0.2217894787890144E+01 -0.2215646176459311E+01 -0.2213394589524161E+01
 -0.2211140031777647E+01 -0.2208882507900507E+01 -0.2206622022561296E+01 -0.2204358580416440E+01 -0.2202092186110278E+01
 -0.2199822844275102E+01 -0.2197550559531206E+01 -0.2195275336486929E+01 -0.2192997179738692E+01 -0.2190716093871051E+01
 -0.2188432083456733E+01 -0.2186145153056682E+01 -0.2183855307220102E+01 -0.2181562550484495E+01 -0.2179266887375709E+01
 -0.2176968322407975E+01 -0.2174666860083955E+01 -0.2172362504894775E+01 -0.2170055261320078E+01 -0.2167745133828051E+01
 -0.2165432126875479E+01 -0.2163116244907779E+01 -0.2160797492359043E+01 -0.2158475873652075E+01 -0.2156151393198439E+01
 -0.2153824055398490E+01 -0.2151493864641419E+01 -0.2149160825305294E+01 -0.2146824941757096E+01 -0.2144486218352759E+01
 -0.2142144659437211E+01 -0.2139800269344414E+01 -0.2137453052397400E+01 -0.2135103012908307E+01 -0.2132750155178427E+01
 -0.2130394483498236E+01 -0.2128036002147433E+01 -0.2125674715394984E+01 -0.2123310627499150E+01 -0.2120943742707535E+01
 -0.2118574065257117E+01 -0.2116201599374286E+01 -0.2113826349274883E+01 -0.2111448319164235E+01 -0.2109067513237195E+01
 -0.2106683935678173E+01 -0.2104297590661180E+01 -0.2101908482349857E+01 -0.2099516614897517E+01 -0.2097121992447174E+01
 -0.2094724619131588E+01 -0.2092324499073294E+01 -0.2089921636384637E+01 -0.2087516035167814E+01 -0.2085107699514900E+01
 -0.2082696633507893E+01 -0.2080282841218738E+01 -0.2077866326709372E+01 -0.2075447094031751E+01 -0.2073025147227889E+01
 -0.2070600490329891E+01 -0.2068173127359984E+01 -0.2065743062330557E+01 -0.2063310299244188E+01 -0.2060874842093683E+01
 -0.2058436694862109E+01 -0.2055995861522823E+01 -0.2053552346039508E+01 -0.2051106152366209E+01 -0.2048657284447361E+01
 -0.2046205746217824E+01 -0.2043751541602916E+01 -0.2041294674518443E+01 -0.2038835148870736E+01 -0.2036372968556679E+01
 -0.2033908137463742E+01 -0.2031440659470015E+01 -0.2028970538444236E+01 -0.2026497778245827E+01 -0.2024022382724921E+01
 -0.2021544355722397E+01 -0.2019063701069909E+01 -0.2016580422589920E+01 -0.2014094524095729E+01 -0.2011606009391502E+01
 -0.2009114882272310E+01 -0.2006621146524147E+01 -0.2004124805923972E+01 -0.2001625864239734E+01 -0.1999124325230402E+01
 -0.1996620192645995E+01 -0.1994113470227613E+01 -0.1991604161707468E+01 -0.1989092270808912E+01 -0.1986577801246464E+01
 -0.1984060756725844E+01 -0.1981541140944001E+01 -0.1979018957589139E+01 -0.1976494210340751E+01 -0.1973966902869643E+01
 -0.1971437038837966E+01 -0.1968904621899245E+01 -0.1966369655698403E+01 -0.1963832143871795E+01 -0.1961292090047234E+01
 -0.1958749497844017E+01 -0.1956204370872958E+01 -0.1953656712736409E+01 -0.1951106527028295E+01 -0.1948553817334138E+01
 -0.1945998587231084E+01 -0.1943440840287931E+01 -0.1940880580065160E+01 -0.1938317810114953E+01 -0.1935752533981232E+01
 -0.1933184755199676E+01 -0.1930614477297755E+01 -0.1928041703794752E+01 -0.1925466438201791E+01 -0.1922888684021864E+01
 -0.1920308444749858E+01 -0.1917725723872581E+01 -0.1915140524868787E+01 -0.1912552851209202E+01 -0.1909962706356551E+01
 -0.1907370093765586E+01 -0.1904775016883108E+01 -0.1902177479147994E+01 -0.1899577483991221E+01 -0.1896975034835899E+01
 -0.1894370135097283E+01 -0.1891762788182812E+01 -0.1889152997492122E+01 -0.1886540766417084E+01 -0.1883926098341814E+01
 -0.1881308996642713E+01 -0.1878689464688479E+01 -0.1876067505840139E+01 -0.1873443123451072E+01 -0.1870816320867031E+01
 -0.1868187101426172E+01 -0.1865555468459075E+01 -0.1862921425288764E+01 -0.1860284975230742E+01 -0.1857646121593004E+01
 -0.1855004867676068E+01 -0.1852361216772994E+01 -0.1849715172169411E+01 -0.1847066737143539E+01 -0.1844415914966211E+01
 -0.1841762708900901E+01 -0.1839107122203741E+01 -0.1836449158123549E+01 -0.1833788819901851E+01 -0.1831126110772901E+01
 -0.1828461033963709E+01 -0.1825793592694059E+01 -0.1823123790176534E+01 -0.1820451629616539E+01 -0.1817777114212322E+01
 -0.1815100247154999E+01 -0.1812421031628571E+01 -0.1809739470809952E+01 -0.1807055567868989E+01 -0.1804369325968483E+01
 -0.1801680748264214E+01 -0.1798989837904956E+01 -0.1796296598032507E+01 -0.1793601031781707E+01 -0.1790903142280461E+01
 -0.1788202932649755E+01 -0.1785500406003687E+01 -0.1782795565449478E+01 -0.1780088414087504E+01 -0.1777378955011305E+01
 -0.1774667191307619E+01 -0.1771953126056394E+01 -0.1769236762330809E+01 -0.1766518103197301E+01 -0.1763797151715582E+01
 -0.1761073910938659E+01 -0.1758348383912854E+01 -0.1755620573677828E+01 -0.1752890483266600E+01 -0.1750158115705564E+01
 -0.1747423474014516E+01 -0.1744686561206666E+01 -0.1741947380288665E+01 -0.1739205934260622E+01 -0.1736462226116124E+01
 -0.1733716258842256E+01 -0.1730968035419623E+01 -0.1728217558822365E+01 -0.1725464832018182E+01 -0.1722709857968347E+01
 -0.1719952639627736E+01 -0.1717193179944833E+01 -0.1714431481861765E+01 -0.1711667548314308E+01 -0.1708901382231912E+01
 -0.1706132986537723E+01 -0.1703362364148598E+01 -0.1700589517975123E+01 -0.1697814450921634E+01 -0.1695037165886236E+01
 -0.1692257665760823E+01 -0.1689475953431093E+01 -0.1686692031776568E+01 -0.1683905903670615E+01 -0.1681117571980460E+01
 -0.1678327039567212E+01 -0.1675534309285876E+01 -0.1672739383985373E+01 -0.1669942266508564E+01 -0.1667142959692254E+01
 -0.1664341466367224E+01 -0.1661537789358245E+01 -0.1658731931484092E+01 -0.1655923895557564E+01 -0.1653113684385505E+01
 -0.1650301300768816E+01 -0.1647486747502479E+01 -0.1644670027375567E+01 -0.1641851143171269E+01 -0.1639030097666901E+01
 -0.1636206893633929E+01 -0.1633381533837982E+01 -0.1630554021038873E+01 -0.1627724357990613E+01 -0.1624892547441426E+01
 -0.1622058592133775E+01 -0.1619222494804367E+01 -0.1616384258184182E+01 -0.1613543884998479E+01 -0.1610701377966820E+01
 -0.1607856739803084E+01 -0.1605009973215485E+01 -0.1602161080906585E+01 -0.1599310065573316E+01 -0.1596456929906990E+01
 -0.1593601676593324E+01 -0.1590744308312447E+01 -0.1587884827738921E+01 -0.1585023237541759E+01 -0.1582159540384438E+01
 -0.1579293738924915E+01 -0.1576425835815643E+01 -0.1573555833703592E+01 -0.1570683735230258E+01 -0.1567809543031683E+01
 -0.1564933259738467E+01 -0.1562054887975791E+01 -0.1559174430363422E+01 -0.1556291889515741E+01 -0.1553407268041747E+01
 -0.1550520568545080E+01 -0.1547631793624032E+01 -0.1544740945871570E+01 -0.1541848027875340E+01 -0.1538953042217688E+01
 -0.1536055991475681E+01 -0.1533156878221109E+01 -0.1530255705020514E+01 -0.1527352474435195E+01 -0.1524447189021227E+01
 -0.1521539851329476E+01 -0.1518630463905614E+01 -0.1515719029290132E+01 -0.1512805550018357E+01 -0.1509890028620464E+01
 -0.1506972467621496E+01 -0.1504052869541370E+01 -0.1501131236894902E+01 -0.1498207572191811E+01 -0.1495281877936742E+01
 -0.1492354156629274E+01 -0.1489424410763941E+01 -0.1486492642830238E+01 -0.1483558855312644E+01 -0.1480623050690629E+01
 -0.1477685231438673E+01 -0.1474745400026276E+01 -0.1471803558917977E+01 -0.1468859710573364E+01 -0.1465913857447087E+01
 -0.1462966001988877E+01 -0.1460016146643556E+01 -0.1457064293851051E+01 -0.1454110446046408E+01 -0.1451154605659807E+01
 -0.1448196775116574E+01 -0.1445236956837197E+01 -0.1442275153237335E+01 -0.1439311366727836E+01 -0.1436345599714749E+01
 -0.1433377854599333E+01 -0.1430408133778082E+01 -0.1427436439642725E+01 -0.1424462774580246E+01 -0.1421487140972897E+01
 -0.1418509541198210E+01 -0.1415529977629009E+01 -0.1412548452633428E+01 -0.1409564968574917E+01 -0.1406579527812260E+01
 -0.1403592132699586E+01 -0.1400602785586382E+01 -0.1397611488817507E+01 -0.1394618244733203E+01 -0.1391623055669107E+01
 -0.1388625923956269E+01 -0.1385626851921159E+01 -0.1382625841885680E+01 -0.1379622896167184E+01 -0.1376618017078482E+01
 -0.1373611206927856E+01 -0.1370602468019075E+01 -0.1367591802651402E+01 -0.1364579213119610E+01 -0.1361564701713995E+01
 -0.1358548270720385E+01 -0.1355529922420155E+01 -0.1352509659090235E+01 -0.1349487483003131E+01 -0.1346463396426925E+01
 -0.1343437401625297E+01 -0.1340409500857532E+01 -0.1337379696378533E+01 -0.1334347990438836E+01 -0.1331314385284614E+01
 -0.1328278883157698E+01 -0.1325241486295583E+01 -0.1322202196931439E+01 -0.1319161017294131E+01 -0.1316117949608218E+01
 -0.1313072996093977E+01 -0.1310026158967404E+01 -0.1306977440440233E+01 -0.1303926842719946E+01 -0.1300874368009781E+01
 -0.1297820018508745E+01 -0.1294763796411630E+01 -0.1291705703909019E+01 -0.1288645743187296E+01 -0.1285583916428662E+01
 -0.1282520225811147E+01 -0.1279454673508616E+01 -0.1276387261690781E+01 -0.1273317992523215E+01 -0.1270246868167362E+01
 -0.1267173890780552E+01 -0.1264099062515999E+01 -0.1261022385522827E+01 -0.1257943861946074E+01 -0.1254863493926703E+01
 -0.1251781283601611E+01 -0.1248697233103646E+01 -0.1245611344561614E+01 -0.1242523620100285E+01 -0.1239434061840412E+01
 -0.1236342671898739E+01 -0.1233249452388008E+01 -0.1230154405416974E+01 -0.1227057533090413E+01 -0.1223958837509133E+01
 -0.1220858320769987E+01 -0.1217755984965877E+01 -0.1214651832185773E+01 -0.1211545864514717E+01 -0.1208438084033836E+01
 -0.1205328492820350E+01 -0.1202217092947585E+01 -0.1199103886484984E+01 -0.1195988875498112E+01 -0.1192872062048672E+01
 -0.1189753448194511E+01 -0.1186633035989632E+01 -0.1183510827484206E+01 -0.1180386824724576E+01 -0.1177261029753274E+01
 -0.1174133444609027E+01 -0.1171004071326764E+01 -0.1167872911937636E+01 -0.1164739968469016E+01 -0.1161605242944511E+01
 -0.1158468737383975E+01 -0.1155330453803517E+01 -0.1152190394215508E+01 -0.1149048560628596E+01 -0.1145904955047714E+01
 -0.1142759579474082E+01 -0.1139612435905231E+01 -0.1136463526334999E+01 -0.1133312852753548E+01 -0.1130160417147374E+01
 -0.1127006221499311E+01 -0.1123850267788545E+01 -0.1120692557990622E+01 -0.1117533094077455E+01 -0.1114371878017341E+01
 -0.1111208911774961E+01 -0.1108044197311392E+01 -0.1104877736584122E+01 -0.1101709531547053E+01 -0.1098539584150511E+01
 -0.1095367896341255E+01 -0.1092194470062491E+01 -0.1089019307253875E+01 -0.1085842409851524E+01 -0.1082663779788027E+01
 -0.1079483418992453E+01 -0.1076301329390356E+01 -0.1073117512903790E+01 -0.1069931971451317E+01 -0.1066744706948010E+01
 -0.1063555721305470E+01 -0.1060365016431827E+01 -0.1057172594231758E+01 -0.1053978456606488E+01 -0.1050782605453797E+01
 -0.1047585042668039E+01 -0.1044385770140144E+01 -0.1041184789757624E+01 -0.1037982103404587E+01 -0.1034777712961744E+01
 -0.1031571620306415E+01 -0.1028363827312544E+01 -0.1025154335850698E+01 -0.1021943147788084E+01 -0.1018730264988554E+01
 -0.1015515689312614E+01 -0.1012299422617429E+01 -0.1009081466756838E+01 -0.1005861823581356E+01 -0.1002640494938188E+01
 -0.9994174826712301E+00 -0.9961927886210884E+00 -0.9929664146250761E+00 -0.9897383625172272E+00 -0.9865086341283046E+00
 -0.9832772312858081E+00 -0.9800441558139847E+00 -0.9768094095338270E+00 -0.9735729942630956E+00 -0.9703349118163164E+00
 -0.9670951640047933E+00 -0.9638537526366165E+00 -0.9606106795166671E+00 -0.9573659464466288E+00 -0.9541195552249933E+00
 -0.9508715076470685E+00 -0.9476218055049888E+00 -0.9443704505877190E+00 -0.9411174446810660E+00 -0.9378627895676849E+00
 -0.9346064870270859E+00 -0.9313485388356429E+00 -0.9280889467666039E+00 -0.9248277125900913E+00 -0.9215648380731187E+00
 -0.9183003249795937E+00 -0.9150341750703221E+00 -0.9117663901030250E+00 -0.9084969718323386E+00 -0.9052259220098227E+00
 -0.9019532423839709E+00 -0.8986789347002189E+00 -0.8954030007009467E+00 -0.8921254421254901E+00 -0.8888462607101478E+00
 -0.8855654581881894E+00 -0.8822830362898598E+00 -0.8789989967423909E+00 -0.8757133412700058E+00 -0.8724260715939236E+00
 -0.8691371894323762E+00 -0.8658466965006045E+00 -0.8625545945108741E+00 -0.8592608851724761E+00 -0.8559655701917395E+00
 -0.8526686512720335E+00 -0.8493701301137809E+00 -0.8460700084144599E+00 -0.8427682878686120E+00 -0.8394649701678527E+00
 -0.8361600570008743E+00 -0.8328535500534556E+00 -0.8295454510084646E+00 -0.8262357615458747E+00 -0.8229244833427622E+00
 -0.8196116180733185E+00 -0.8162971674088529E+00 -0.8129811330178061E+00 -0.8096635165657501E+00 -0.8063443197154024E+00
 -0.8030235441266222E+00 -0.7997011914564285E+00 -0.7963772633590019E+00 -0.7930517614856897E+00 -0.7897246874850161E+00
 -0.7863960430026876E+00 -0.7830658296815965E+00 -0.7797340491618365E+00 -0.7764007030806982E+00 -0.7730657930726853E+00
 -0.7697293207695131E+00 -0.7663912878001242E+00 -0.7630516957906861E+00 -0.7597105463646024E+00 -0.7563678411425205E+00
 -0.7530235817423369E+00 -0.7496777697792001E+00 -0.7463304068655231E+00 -0.7429814946109857E+00 -0.7396310346225445E+00
 -0.7362790285044358E+00 -0.7329254778581805E+00 -0.7295703842826008E+00 -0.7262137493738109E+00 -0.7228555747252392E+00
 -0.7194958619276217E+00 -0.7161346125690178E+00 -0.7127718282348112E+00 -0.7094075105077159E+00 -0.7060416609677881E+00
 -0.7026742811924254E+00 -0.6993053727563786E+00 -0.6959349372317534E+00 -0.6925629761880197E+00 -0.6891894911920180E+00
 -0.6858144838079646E+00 -0.6824379555974556E+00 -0.6790599081194767E+00 -0.6756803429304087E+00 -0.6722992615840290E+00
 -0.6689166656315242E+00 -0.6655325566214932E+00 -0.6621469360999526E+00 -0.6587598056103410E+00 -0.6553711666935325E+00
 -0.6519810208878327E+00 -0.6485893697289955E+00 -0.6451962147502152E+00 -0.6418015574821456E+00 -0.6384053994529006E+00
 -0.6350077421880584E+00 -0.6316085872106684E+00 -0.6282079360412620E+00 -0.6248057901978505E+00 -0.6214021511959336E+00
 -0.6179970205485104E+00 -0.6145903997660787E+00 -0.6111822903566417E+00 -0.6077726938257190E+00 -0.6043616116763444E+00
 -0.6009490454090783E+00 -0.5975349965220106E+00 -0.5941194665107677E+00 -0.5907024568685133E+00 -0.5872839690859608E+00
 -0.5838640046513777E+00 -0.5804425650505849E+00 -0.5770196517669709E+00 -0.5735952662814926E+00 -0.5701694100726779E+00
 -0.5667420846166416E+00 -0.5633132913870813E+00 -0.5598830318552838E+00 -0.5564513074901360E+00 -0.5530181197581246E+00
 -0.5495834701233481E+00 -0.5461473600475145E+00 -0.5427097909899532E+00 -0.5392707644076162E+00 -0.5358302817550838E+00
 -0.5323883444845762E+00 -0.5289449540459500E+00 -0.5255001118867072E+00 -0.5220538194520050E+00 -0.5186060781846534E+00
 -0.5151568895251245E+00 -0.5117062549115585E+00 -0.5082541757797679E+00 -0.5048006535632432E+00 -0.5013456896931555E+00
 -0.4978892855983671E+00 -0.4944314427054329E+00 -0.4909721624386040E+00 -0.4875114462198379E+00 -0.4840492954688008E+00
 -0.4805857116028721E+00 -0.4771206960371510E+00 -0.4736542501844583E+00 -0.4701863754553510E+00 -0.4667170732581141E+00
 -0.4632463449987743E+00 -0.4597741920811045E+00 -0.4563006159066254E+00 -0.4528256178746157E+00 -0.4493491993821112E+00
 -0.4458713618239124E+00 -0.4423921065925911E+00 -0.4389114350784929E+00 -0.4354293486697455E+00 -0.4319458487522587E+00
 -0.4284609367097353E+00 -0.4249746139236671E+00 -0.4214868817733530E+00 -0.4179977416358930E+00 -0.4145071948861921E+00
 -0.4110152428969779E+00 -0.4075218870387913E+00 -0.4040271286799990E+00 -0.4005309691867974E+00 -0.3970334099232151E+00
 -0.3935344522511189E+00 -0.3900340975302196E+00 -0.3865323471180788E+00 -0.3830292023701066E+00 -0.3795246646395707E+00
 -0.3760187352776039E+00 -0.3725114156332050E+00 -0.3690027070532449E+00 -0.3654926108824691E+00 -0.3619811284635058E+00
 -0.3584682611368688E+00 -0.3549540102409615E+00 -0.3514383771120827E+00 -0.3479213630844333E+00 -0.3444029694901134E+00
 -0.3408831976591381E+00 -0.3373620489194300E+00 -0.3338395245968331E+00 -0.3303156260151145E+00 -0.3267903544959682E+00
 -0.3232637113590169E+00 -0.3197356979218248E+00 -0.3162063154998925E+00 -0.3126755654066682E+00 -0.3091434489535476E+00
 -0.3056099674498853E+00 -0.3020751222029885E+00 -0.2985389145181318E+00 -0.2950013456985565E+00 -0.2914624170454739E+00
 -0.2879221298580759E+00 -0.2843804854335316E+00 -0.2808374850669943E+00 -0.2772931300516128E+00 -0.2737474216785248E+00
 -0.2702003612368673E+00 -0.2666519500137810E+00 -0.2631021892944111E+00 -0.2595510803619173E+00 -0.2559986244974742E+00
 -0.2524448229802740E+00 -0.2488896770875367E+00 -0.2453331880945062E+00 -0.2417753572744631E+00 -0.2382161858987231E+00
 -0.2346556752366444E+00 -0.2310938265556282E+00 -0.2275306411211290E+00 -0.2239661201966506E+00 -0.2204002650437576E+00
 -0.2168330769220752E+00 -0.2132645570892977E+00 -0.2096947068011884E+00 -0.2061235273115823E+00 -0.2025510198723979E+00
 -0.1989771857336344E+00 -0.1954020261433770E+00 -0.1918255423478031E+00 -0.1882477355911857E+00 -0.1846686071158970E+00
 -0.1810881581624082E+00 -0.1775063899693058E+00 -0.1739233037732815E+00 -0.1703389008091441E+00 -0.1667531823098210E+00
 -0.1631661495063669E+00 -0.1595778036279564E+00 -0.1559881459019047E+00 -0.1523971775536548E+00 -0.1488048998067926E+00
 -0.1452113138830451E+00 -0.1416164210022902E+00 -0.1380202223825521E+00 -0.1344227192400145E+00 -0.1308239127890187E+00
 -0.1272238042420670E+00 -0.1236223948098293E+00 -0.1200196857011474E+00 -0.1164156781230370E+00 -0.1128103732806912E+00
 -0.1092037723774850E+00 -0.1055958766149819E+00 -0.1019866871929334E+00 -0.9837620530928376E-01 -0.9476443216017777E-01
 -0.9115136893995619E-01 -0.8753701684117281E-01 -0.8392137705458197E-01 -0.8030445076915489E-01 -0.7668623917208042E-01
 -0.7306674344876114E-01 -0.6944596478283177E-01 -0.6582390435614824E-01 -0.6220056334880029E-01 -0.5857594293911217E-01
 -0.5495004430364757E-01 -0.5132286861720933E-01 -0.4769441705285024E-01 -0.4406469078187102E-01 -0.4043369097382415E-01
 -0.3680141879652195E-01 -0.3316787541603359E-01 -0.2953306199669808E-01 -0.2589697970111619E-01 -0.2225962969016246E-01
 -0.1862101312298885E-01 -0.1498113115701977E-01 -0.1133998494796919E-01 -0.7697575649829647E-02 -0.4053904414889230E-02
 -0.4089723937256190E-03  0.3237219264789771E-02  0.6884669413477421E-02  0.1053337690686525E-01  0.1418334060116665E-01
  0.1783455935428675E-01  0.2148703202581588E-01  0.2514075747703169E-01  0.2879573457088070E-01  0.3245196217199934E-01
  0.3610943914668532E-01  0.3976816436290673E-01  0.4342813669030271E-01  0.4708935500016857E-01  0.5075181816545998E-01
  0.5441552506078849E-01  0.5808047456241892E-01  0.6174666554826157E-01  0.6541409689786967E-01  0.6908276749244542E-01
  0.7275267621482202E-01  0.7642382194947160E-01  0.8009620358249758E-01  0.8376982000162722E-01  0.8744467009622130E-01
  0.9112075275725290E-01  0.9479806687732079E-01  0.9847661135063153E-01  0.1021563850730112E+00  0.1058373869418879E+00
  0.1095196158562998E+00  0.1132030707168795E+00  0.1168877504258691E+00  0.1205736538870962E+00  0.1242607800059870E+00
  0.1279491276895510E+00  0.1316386958463896E+00  0.1353294833866818E+00  0.1390214892221880E+00  0.1427147122662414E+00
  0.1464091514337530E+00  0.1501048056412015E+00  0.1538016738066318E+00  0.1574997548496498E+00  0.1611990476914261E+00
  0.1648995512546844E+00  0.1686012644637033E+00  0.1723041862443165E+00  0.1760083155238983E+00  0.1797136512313715E+00
  0.1834201922972007E+00  0.1871279376533860E+00  0.1908368862334631E+00  0.1945470369725051E+00  0.1982583888071072E+00
  0.2019709406753951E+00  0.2056846915170144E+00  0.2093996402731318E+00  0.2131157858864344E+00  0.2168331273011141E+00
  0.2205516634628850E+00  0.2242713933189574E+00  0.2279923158180567E+00  0.2317144299104014E+00  0.2354377345477165E+00
  0.2391622286832152E+00  0.2428879112716108E+00  0.2466147812690998E+00  0.2503428376333706E+00  0.2540720793235904E+00
  0.2578025053004119E+00  0.2615341145259635E+00  0.2652669059638519E+00  0.2690008785791480E+00  0.2727360313383994E+00
  0.2764723632096183E+00  0.2802098731622786E+00  0.2839485601673163E+00  0.2876884231971218E+00  0.2914294612255436E+00
  0.2951716732278827E+00  0.2989150581808856E+00  0.3026596150627456E+00  0.3064053428530999E+00  0.3101522405330291E+00
  0.3139003070850468E+00  0.3176495414930997E+00  0.3213999427425748E+00  0.3251515098202783E+00  0.3289042417144517E+00
  0.3326581374147509E+00  0.3364131959122605E+00  0.3401694161994783E+00  0.3439267972703153E+00  0.3476853381201016E+00
  0.3514450377455695E+00  0.3552058951448654E+00  0.3589679093175318E+00  0.3627310792645172E+00  0.3664954039881693E+00
  0.3702608824922288E+00  0.3740275137818294E+00  0.3777952968634974E+00  0.3815642307451461E+00  0.3853343144360724E+00
  0.3891055469469561E+00  0.3928779272898552E+00  0.3966514544782084E+00  0.4004261275268218E+00  0.4042019454518824E+00
  0.4079789072709373E+00  0.4117570120029037E+00  0.4155362586680590E+00  0.4193166462880478E+00  0.4230981738858678E+00
  0.4268808404858733E+00  0.4306646451137723E+00  0.4344495867966208E+00  0.4382356645628236E+00  0.4420228774421363E+00
  0.4458112244656457E+00  0.4496007046657863E+00  0.4533913170763306E+00  0.4571830607323811E+00  0.4609759346703778E+00
  0.4647699379280811E+00  0.4685650695445874E+00  0.4723613285603169E+00  0.4761587140170075E+00  0.4799572249577182E+00
  0.4837568604268248E+00  0.4875576194700206E+00  0.4913595011343013E+00  0.4951625044679844E+00  0.4989666285206826E+00
  0.5027718723433215E+00  0.5065782349881235E+00  0.5103857155086128E+00  0.5141943129596085E+00  0.5180040263972245E+00
  0.5218148548788660E+00  0.5256267974632299E+00  0.5294398532102955E+00  0.5332540211813316E+00  0.5370693004388850E+00
  0.5408856900467852E+00  0.5447031890701345E+00  0.5485217965753149E+00  0.5523415116299762E+00  0.5561623333030398E+00
  0.5599842606646953E+00  0.5638072927863975E+00  0.5676314287408595E+00  0.5714566676020622E+00  0.5752830084452347E+00
  0.5791104503468696E+00  0.5829389923847089E+00  0.5867686336377423E+00  0.5905993731862164E+00  0.5944312101116174E+00
  0.5982641434966739E+00  0.6020981724253570E+00  0.6059332959828833E+00  0.6097695132556922E+00  0.6136068233314692E+00
  0.6174452252991279E+00  0.6212847182488089E+00  0.6251253012718851E+00  0.6289669734609469E+00  0.6328097339098149E+00
  0.6366535817135275E+00  0.6404985159683351E+00  0.6443445357717152E+00  0.6481916402223467E+00  0.6520398284201300E+00
  0.6558890994661670E+00  0.6597394524627697E+00  0.6635908865134508E+00  0.6674434007229342E+00  0.6712969941971323E+00
  0.6751516660431595E+00  0.6790074153693291E+00  0.6828642412851404E+00  0.6867221429012906E+00  0.6905811193296635E+00
  0.6944411696833249E+00  0.6983022930765302E+00  0.7021644886247146E+00  0.7060277554444937E+00  0.7098920926536592E+00
  0.7137574993711784E+00  0.7176239747171940E+00  0.7214915178130186E+00  0.7253601277811356E+00  0.7292298037451883E+00
  0.7331005448299927E+00  0.7369723501615205E+00  0.7408452188669115E+00  0.7447191500744541E+00  0.7485941429135986E+00
  0.7524701965149498E+00  0.7563473100102608E+00  0.7602254825324335E+00  0.7641047132155235E+00  0.7679850011947228E+00
  0.7718663456063731E+00  0.7757487455879560E+00  0.7796322002780907E+00  0.7835167088165318E+00  0.7874022703441724E+00
  0.7912888840030360E+00  0.7951765489362749E+00  0.7990652642881760E+00  0.8029550292041450E+00  0.8068458428307181E+00
  0.8107377043155495E+00  0.8146306128074154E+00  0.8185245674562113E+00  0.8224195674129436E+00  0.8263156118297426E+00
  0.8302126998598397E+00  0.8341108306575842E+00  0.8380100033784297E+00  0.8419102171789348E+00  0.8458114712167659E+00
  0.8497137646506877E+00  0.8536170966405660E+00  0.8575214663473640E+00  0.8614268729331446E+00  0.8653333155610571E+00
  0.8692407933953475E+00  0.8731493056013510E+00  0.8770588513454941E+00  0.8809694297952813E+00  0.8848810401193073E+00
  0.8887936814872474E+00  0.8927073530698566E+00  0.8966220540389660E+00  0.9005377835674857E+00  0.9044545408293987E+00
  0.9083723249997596E+00  0.9122911352546956E+00  0.9162109707714006E+00  0.9201318307281323E+00  0.9240537143042162E+00
  0.9279766206800396E+00  0.9319005490370514E+00  0.9358254985577574E+00  0.9397514684257212E+00  0.9436784578255581E+00
  0.9476064659429435E+00  0.9515354919645929E+00  0.9554655350782824E+00  0.9593965944728317E+00  0.9633286693381012E+00
  0.9672617588649997E+00  0.9711958622454773E+00  0.9751309786725214E+00  0.9790671073401569E+00  0.9830042474434492E+00
  0.9869423981784922E+00  0.9908815587424208E+00  0.9948217283333882E+00  0.9987629061505862E+00  0.1002705091394226E+01
  0.1006648283265553E+01  0.1010592480966826E+01  0.1014537683701332E+01  0.1018483890673373E+01  0.1022431101088270E+01
  0.1026379314152361E+01  0.1030328529072999E+01  0.1034278745058545E+01  0.1038229961318372E+01  0.1042182177062865E+01
  0.1046135391503410E+01  0.1050089603852405E+01  0.1054044813323245E+01  0.1058001019130330E+01  0.1061958220489056E+01
  0.1065916416615819E+01  0.1069875606728017E+01  0.1073835790044029E+01  0.1077796965783240E+01  0.1081759133166020E+01
  0.1085722291413724E+01  0.1089686439748703E+01  0.1093651577394287E+01  0.1097617703574791E+01  0.1101584817515513E+01
  0.1105552918442732E+01  0.1109522005583704E+01  0.1113492078166666E+01  0.1117463135420824E+01  0.1121435176576359E+01
  0.1125408200864428E+01  0.1129382207517154E+01  0.1133357195767628E+01  0.1137333164849911E+01  0.1141310113999026E+01
  0.1145288042450961E+01  0.1149266949442663E+01  0.1153246834212041E+01  0.1157227695997962E+01  0.1161209534040248E+01
  0.1165192347579677E+01  0.1169176135857979E+01  0.1173160898117837E+01  0.1177146633602885E+01  0.1181133341557700E+01
  0.1185121021227811E+01  0.1189109671859688E+01  0.1193099292700746E+01  0.1197089882999339E+01  0.1201081442004769E+01
  0.1205073968967260E+01  0.1209067463137993E+01  0.1213061923769065E+01  0.1217057350113521E+01  0.1221053741425331E+01
  0.1225051096959393E+01  0.1229049415971535E+01  0.1233048697718516E+01  0.1237048941458014E+01  0.1241050146448639E+01
  0.1245052311949910E+01  0.1249055437222281E+01  0.1253059521527114E+01  0.1257064564126694E+01  0.1261070564284219E+01
  0.1265077521263803E+01  0.1269085434330469E+01  0.1273094302750156E+01  0.1277104125789706E+01  0.1281114902716875E+01
  0.1285126632800320E+01  0.1289139315309609E+01  0.1293152949515203E+01  0.1297167534688477E+01  0.1301183070101695E+01
  0.1305199555028026E+01  0.1309216988741531E+01  0.1313235370517170E+01  0.1317254699630799E+01  0.1321274975359157E+01
  0.2578844276293752E+02  0.2578844276293752E+02  0.2578844276293752E+02  0.2578844276293752E+02  0.2578844276293752E+02
  0.2578844276293752E+02  0.2578844276293752E+02  0.2578844276293752E+02  0.2578844276293752E+02  0.2578844276293752E+02
  0.2578844276293752E+02  0.2578844276293752E+02  0.2578844276293752E+02  0.2578844276293752E+02  0.2578844276293752E+02
  0.2578844276293752E+02  0.2578844276293752E+02  0.2578844276293752E+02  0.2578844276293752E+02  0.2578844276293752E+02
  0.2578844276293752E+02  0.2578844276293752E+02  0.2578844276293752E+02  0.2578844276293752E+02  0.2578844276293752E+02
  0.2578844276293752E+02  0.2578844276293752E+02  0.2578844276293752E+02  0.2578844276293752E+02  0.2578844276293752E+02
  0.2578844276293752E+02  0.2578844276293752E+02  0.2578844276293752E+02  0.2578844276293752E+02  0.2578844276293752E+02
  0.2578844276293752E+02  0.2578844276293752E+02  0.2578844276293752E+02  0.2578844276293752E+02  0.2578844276293752E+02
  0.2578844276293752E+02  0.2578844276293752E+02  0.2578844276293752E+02  0.2578844276293752E+02  0.2578844276293752E+02
  0.2578844276293752E+02  0.2578844276293752E+02  0.2578844276293752E+02  0.2578844276293752E+02  0.2578844276293752E+02
  0.2578844276293752E+02  0.2578844276293752E+02  0.2578844276293752E+02  0.2578844276293752E+02  0.2578844276293752E+02
  0.2578844276293752E+02  0.2578844276293752E+02  0.2578844276293752E+02  0.2578844276293752E+02  0.2578844276293752E+02
  0.2578844276293752E+02  0.2578844276293752E+02  0.2578844276293752E+02  0.2578844276293752E+02  0.2578844276293752E+02
  0.2578844276293752E+02  0.2578844276293752E+02  0.2578844276293752E+02  0.2578844276293752E+02  0.2578844276293752E+02
  0.2578844276293752E+02  0.2578844276293752E+02  0.2578844276293752E+02  0.2578844276293752E+02  0.2578844276293752E+02
  0.2578844276293752E+02  0.2578844276293752E+02  0.2578844276293752E+02  0.2578844276293752E+02  0.2578844276293752E+02
  0.2578844276293752E+02  0.2578844276293752E+02  0.2578844276293752E+02  0.2578844276293752E+02  0.2578844276293752E+02
  0.2578844276293752E+02  0.2578844276293752E+02  0.2578844276293752E+02  0.2578844276293752E+02  0.2578844276293752E+02
  0.2578844276293752E+02  0.2578844276293752E+02  0.2578844276293752E+02  0.2578844276293752E+02  0.2578844276293752E+02
  0.2578844276293752E+02  0.2578844276293752E+02  0.2578844276293752E+02  0.2578844276293752E+02  0.2578844276293752E+02
  0.2578844276293752E+02  0.2578844276293752E+02  0.2578844276293752E+02  0.2578844276293752E+02  0.2578844276293752E+02
  0.2578844276293752E+02  0.2578844276293752E+02  0.2578844276293752E+02  0.2578844276293752E+02  0.2578844276293752E+02
  0.2578844276293752E+02  0.2578844276293752E+02  0.2578844276293752E+02  0.2578844276293752E+02  0.2578844276293752E+02
  0.2578844276293752E+02  0.2578844276293752E+02  0.2578844276293752E+02  0.2578844276293752E+02  0.2578844276293752E+02
  0.2578844276293752E+02  0.2578844276293752E+02  0.2578844276293752E+02  0.2578844276293752E+02  0.2578844276293752E+02
  0.2578844276293752E+02  0.2578844276293752E+02  0.2578844276293752E+02  0.2578844276293752E+02  0.2578844276293752E+02
  0.2578844276293752E+02  0.2578844276293752E+02  0.2578844276293752E+02  0.2578844276293752E+02  0.2578844276293752E+02
  0.2578844276293752E+02  0.2578844276293752E+02  0.2578844276293752E+02  0.2578844276293752E+02  0.2578844276293752E+02
  0.2578844276293752E+02  0.2578844276293752E+02  0.2578844276293752E+02  0.2578844276293752E+02  0.2578844276293752E+02
  0.2578844276293752E+02  0.2578844276293752E+02  0.2578844276293752E+02  0.2578844276293752E+02  0.2578844276293752E+02
  0.2578844276293752E+02  0.2578844276293752E+02  0.2578844276293752E+02  0.2578844276293752E+02  0.2578844276293752E+02
  0.2578844276293752E+02  0.2578844276293752E+02  0.2569462954036568E+02  0.2559347672787020E+02  0.2549272139385769E+02
  0.2539236200413482E+02  0.2529239702942677E+02  0.2519282494539679E+02  0.2509364423266448E+02  0.2499485337682270E+02
  0.2489645086845317E+02  0.2479843520314090E+02  0.2470080488148743E+02  0.2460355840912286E+02  0.2450669429671683E+02
  0.2441021105998832E+02  0.2431410721971459E+02  0.2421838130173900E+02  0.2412303183697782E+02  0.2402805736142624E+02
  0.2393345641616339E+02  0.2383922754735653E+02  0.2374536930626439E+02  0.2365188024923964E+02  0.2355875893773079E+02
  0.2346600393828304E+02  0.2337361382253865E+02  0.2328158716723654E+02  0.2318992255421110E+02  0.2309861857039059E+02
  0.2300767380779469E+02  0.2291708686353159E+02  0.2282685633979442E+02  0.2273698084385721E+02  0.2264745898807023E+02
  0.2255828938985482E+02  0.2246947067169785E+02  0.2238100146114552E+02  0.2229288039079681E+02  0.2220510609829648E+02
  0.2211767722632768E+02  0.2203059242260402E+02  0.2194385033986139E+02  0.2185744963584940E+02  0.2177138897332230E+02
  0.2168566702002980E+02  0.2160028244870736E+02  0.2151523393706622E+02  0.2143052016778321E+02  0.2134613982849009E+02
  0.2126209161176285E+02  0.2117837421511051E+02  0.2109498634096381E+02  0.2101192669666360E+02  0.2092919399444902E+02
  0.2084678695144547E+02  0.2076470428965227E+02  0.2068294473593028E+02  0.2060150702198916E+02  0.2052038988437457E+02
  0.2043959206445514E+02  0.2035911230840929E+02  0.2027894936721184E+02  0.2019910199662054E+02  0.2011956895716241E+02
  0.2004034901411999E+02  0.1996144093751740E+02  0.1988284350210634E+02  0.1980455548735186E+02  0.1972657567741825E+02
  0.1964890286115455E+02  0.1957153583208015E+02  0.1949447338837024E+02  0.1941771433284116E+02  0.1934125747293573E+02
  0.1926510162070843E+02  0.1918924559281053E+02  0.1911368821047521E+02  0.1903842829950255E+02  0.1896346469024448E+02
  0.1888879621758975E+02  0.1881442172094871E+02  0.1874034004423818E+02  0.1866655003586625E+02  0.1859305054871696E+02
  0.1851984044013508E+02  0.1844691857191073E+02  0.1837428381026407E+02  0.1830193502582995E+02  0.1822987109364252E+02
  0.1815809089311978E+02  0.1808659330804825E+02  0.1801537722656749E+02  0.1794444154115466E+02  0.1787378514860914E+02
  0.1780340695003703E+02  0.1773330585083575E+02  0.1766348076067858E+02  0.1759393059349924E+02  0.1752465426747646E+02
  0.1745565070501853E+02  0.1738691883274793E+02  0.1731845758148590E+02  0.1725026588623711E+02  0.1718234268617418E+02
  0.1711468692462246E+02  0.1704729754904459E+02  0.1698017351102526E+02  0.1691331376625585E+02  0.1684671727451923E+02
  0.1678038299967443E+02  0.1671430990964150E+02  0.1664849697638627E+02  0.1658294317590522E+02  0.1651764748821031E+02
  0.1645260889731384E+02  0.1638782639121347E+02  0.1632329896187709E+02  0.1625902560522787E+02  0.1619500532112921E+02
  0.1613123711336985E+02  0.1606771998964898E+02  0.1600445296156133E+02  0.1594143504458232E+02  0.1587866525805331E+02
  0.1581614262516682E+02  0.1575386617295180E+02  0.1569183493225897E+02  0.1563004793774619E+02  0.1556850422786381E+02
  0.1550720284484015E+02  0.1544614283466699E+02  0.1538532324708508E+02  0.1532474313556970E+02  0.1526440155731631E+02
  0.1520429757322614E+02  0.1514443024789195E+02  0.1508479864958374E+02  0.1502540185023457E+02  0.1496623892542630E+02
  0.1490730895437561E+02  0.1484861101991979E+02  0.1479014420850280E+02  0.1473190761016120E+02  0.1467390031851026E+02
  0.1461612143073008E+02  0.1455857004755171E+02  0.1450124527324334E+02  0.1444414621559656E+02  0.1438727198591265E+02
  0.1433062169898890E+02  0.1427419447310506E+02  0.1421798943000964E+02  0.1416200569490654E+02  0.1410624239644146E+02
  0.1405069866668853E+02  0.1399537364113694E+02  0.1394026645867754E+02  0.1388537626158963E+02  0.1383070219552768E+02
  0.1377624340950817E+02  0.1372199905589640E+02  0.1366796829039344E+02  0.1361415027202307E+02  0.1356054416311876E+02
  0.1350714912931076E+02  0.1345396433951313E+02  0.1340098896591097E+02  0.1334822218394751E+02  0.1329566317231140E+02
  0.1324331111292402E+02  0.1319116519092677E+02  0.1313922459466846E+02  0.1308748851569270E+02  0.1303595614872545E+02
  0.1298462669166247E+02  0.1293349934555693E+02  0.1288257331460698E+02  0.1283184780614345E+02  0.1278132203061754E+02
  0.1273099520158856E+02  0.1268086653571175E+02  0.1263093525272612E+02  0.1258120057544231E+02  0.1253166172973060E+02
  0.1248231794450881E+02  0.1243316845173038E+02  0.1238421248637243E+02  0.1233544928642390E+02  0.1228687809287367E+02
  0.1223849814969883E+02  0.1219030870385287E+02  0.1214230900525405E+02  0.1209449830677372E+02  0.1204687586422468E+02
  0.1199944093634966E+02  0.1195219278480979E+02  0.1190513067417312E+02  0.1185825387190317E+02  0.1181156164834761E+02
  0.1176505327672683E+02  0.1171872803312270E+02  0.1167258519646731E+02  0.1162662404853175E+02  0.1158084387391493E+02
  0.1153524396003248E+02  0.1148982359710567E+02  0.1144458207815037E+02  0.1139951869896601E+02  0.1135463275812472E+02
  0.1130992355696032E+02  0.1126539039955755E+02  0.1122103259274117E+02  0.1117684944606522E+02  0.1113284027180226E+02
  0.1108900438493269E+02  0.1104534110313408E+02  0.1100184974677057E+02  0.1095852963888228E+02  0.1091538010517478E+02
  0.1087240047400860E+02  0.1082959007638884E+02  0.1078694824595465E+02  0.1074447431896894E+02  0.1070216763430803E+02
  0.1066002753345139E+02  0.1061805336047137E+02  0.1057624446202295E+02  0.1053460018733369E+02  0.1049311988819346E+02
  0.1045180291894451E+02  0.1041064863647126E+02  0.1036965640019042E+02  0.1032882557204096E+02  0.1028815551647420E+02
  0.1024764560044391E+02  0.1020729519339647E+02  0.1016710366726105E+02  0.1012707039643983E+02  0.1008719475779827E+02
  0.1004747613065544E+02  0.1000791389677429E+02  0.9968507440352111E+01  0.9929256148010882E+01  0.9890159408787792E+01
  0.9851216614125658E+01  0.9812427157863510E+01  0.9773790436227122E+01  0.9735305847819657E+01  0.9696972793612254E+01
  0.9658790676934741E+01  0.9620758903466337E+01  0.9582876881226403E+01  0.9545144020565239E+01  0.9507559734154885E+01
  0.9470123436979994E+01  0.9432834546328726E+01  0.9395692481783668E+01  0.9358696665212832E+01  0.9321846520760610E+01
  0.9285141474838849E+01  0.9248580956117893E+01  0.9212164395517721E+01  0.9175891226199077E+01  0.9139760883554636E+01
  0.9103772805200226E+01  0.9067926430966073E+01  0.9032221202888094E+01  0.8996656565199194E+01  0.8961231964320623E+01
  0.8925946848853357E+01  0.8890800669569515E+01  0.8855792879403831E+01  0.8820922933445106E+01  0.8786190288927745E+01
  0.8751594405223305E+01  0.8717134743832087E+01  0.8682810768374738E+01  0.8648621944583923E+01  0.8614567740295991E+01
  0.8580647625442696E+01  0.8546861072042958E+01  0.8513207554194633E+01  0.8479686548066333E+01  0.8446297531889263E+01
  0.8413039985949110E+01  0.8379913392577951E+01  0.8346917236146199E+01  0.8314051003054566E+01  0.8281314181726074E+01
  0.8248706262598104E+01  0.8216226738114436E+01  0.8183875102717391E+01  0.8151650852839914E+01  0.8119553486897766E+01
  0.8087582505281725E+01  0.8055737410349776E+01  0.8024017706419395E+01  0.7992422899759808E+01  0.7960952498584340E+01
  0.7929606013042724E+01  0.7898382955213497E+01  0.7867282839096404E+01  0.7836305180604827E+01  0.7805449497558257E+01
  0.7774715309674772E+01  0.7744102138563595E+01  0.7713609507717610E+01  0.7683236942505959E+01  0.7652983970166675E+01
  0.7622850119799288E+01  0.7592834922357523E+01  0.7562937910641977E+01  0.7533158619292872E+01  0.7503496584782789E+01
  0.7473951345409460E+01  0.7444522441288590E+01  0.7415209414346686E+01  0.7386011808313941E+01  0.7356929168717111E+01
  0.7327961042872468E+01  0.7299106979878726E+01  0.7270366530610044E+01  0.7241739247709027E+01  0.7213224685579760E+01
  0.7184822400380877E+01  0.7156531950018649E+01  0.7128352894140109E+01  0.7100284794126186E+01  0.7072327213084881E+01
  0.7044479715844488E+01  0.7016741868946779E+01  0.6989113240640300E+01  0.6961593400873618E+01  0.6934181921288653E+01
  0.6906878375213982E+01  0.6879682337658228E+01  0.6852593385303419E+01  0.6825611096498412E+01  0.6798735051252336E+01
  0.6771964831228038E+01  0.6745300019735584E+01  0.6718740201725764E+01  0.6692284963783644E+01  0.6665933894122116E+01
  0.6639686582575500E+01  0.6613542620593155E+01  0.6587501601233121E+01  0.6561563119155784E+01  0.6535726770617560E+01
  0.6509992153464631E+01  0.6484358867126659E+01  0.6458826512610566E+01  0.6433394692494326E+01  0.6408063010920767E+01
  0.6382831073591428E+01  0.6357698487760396E+01  0.6332664862228216E+01  0.6307729807335786E+01  0.6282892934958299E+01
  0.6258153858499210E+01  0.6233512192884198E+01  0.6208967554555191E+01  0.6184519561464382E+01  0.6160167833068295E+01
  0.6135911990321850E+01  0.6111751655672469E+01  0.6087686453054201E+01  0.6063716007881863E+01  0.6039839947045218E+01
  0.6016057898903155E+01  0.5992369493277909E+01  0.5968774361449309E+01  0.5945272136149023E+01  0.5921862451554857E+01
  0.5898544943285047E+01  0.5875319248392588E+01  0.5852185005359604E+01  0.5829141854091691E+01  0.5806189435912341E+01
  0.5783327393557330E+01  0.5760555371169189E+01  0.5737873014291638E+01  0.5715279969864077E+01  0.5692775886216102E+01
  0.5670360413062012E+01  0.5648033201495376E+01  0.5625793903983585E+01  0.5603642174362448E+01  0.5581577667830815E+01
  0.5559600040945192E+01  0.5537708951614412E+01  0.5515904059094294E+01  0.5494185023982348E+01  0.5472551508212501E+01
  0.5451003175049812E+01  0.5429539689085252E+01  0.5408160716230474E+01  0.5386865923712612E+01  0.5365654980069105E+01
  0.5344527555142530E+01  0.5323483320075479E+01  0.5302521947305417E+01  0.5281643110559607E+01  0.5260846484850016E+01
  0.5240131746468259E+01  0.5219498572980568E+01  0.5198946643222761E+01  0.5178475637295255E+01  0.5158085236558076E+01
  0.5137775123625908E+01  0.5117544982363150E+01  0.5097394497878989E+01  0.5077323356522510E+01  0.5057331245877801E+01
  0.5037417854759105E+01  0.5017582873205961E+01  0.4997825992478390E+01  0.4978146905052086E+01  0.4958545304613626E+01
  0.4939020886055711E+01  0.4919573345472402E+01  0.4900202380154409E+01  0.4880907688584360E+01  0.4861688970432120E+01
  0.4842545926550117E+01  0.4823478258968673E+01  0.4804485670891382E+01  0.4785567866690476E+01  0.4766724551902239E+01
  0.4747955433222401E+01  0.4729260218501602E+01  0.4710638616740816E+01  0.4692090338086841E+01  0.4673615093827778E+01
  0.4655212596388541E+01  0.4636882559326381E+01  0.4618624697326418E+01  0.4600438726197219E+01  0.4582324362866355E+01
  0.4564281325376004E+01  0.4546309332878567E+01  0.4528408105632282E+01  0.4510577364996887E+01  0.4492816833429266E+01
  0.4475126234479146E+01  0.4457505292784777E+01  0.4439953734068657E+01  0.4422471285133265E+01  0.4405057673856794E+01
  0.4387712629188933E+01  0.4370435881146631E+01  0.4353227160809913E+01  0.4336086200317678E+01  0.4319012732863535E+01
  0.4302006492691658E+01  0.4285067215092633E+01  0.4268194636399357E+01  0.4251388493982914E+01  0.4234648526248506E+01
  0.4217974472631367E+01  0.4201366073592713E+01  0.4184823070615706E+01  0.4168345206201417E+01  0.4151932223864836E+01
  0.4135583868130864E+01  0.4119299884530347E+01  0.4103080019596105E+01  0.4086924020858999E+01  0.4070831636843993E+01
  0.4054802617066238E+01  0.4038836712027177E+01  0.4022933673210665E+01  0.4007093253079095E+01  0.3991315205069547E+01
  0.3975599283589944E+01  0.3959945244015243E+01  0.3944352842683621E+01  0.3928821836892665E+01  0.3913351984895627E+01
  0.3897943045897638E+01  0.3882594780051967E+01  0.3867306948456279E+01  0.3852079313148933E+01  0.3836911637105272E+01
  0.3821803684233915E+01  0.3806755219373113E+01  0.3791766008287066E+01  0.3776835817662291E+01  0.3761964415103972E+01
  0.3747151569132364E+01  0.3732397049179180E+01  0.3717700625583996E+01  0.3703062069590690E+01  0.3688481153343869E+01
  0.3673957649885333E+01  0.3659491333150528E+01  0.3645081977965041E+01  0.3630729360041095E+01  0.3616433255974040E+01
  0.3602193443238899E+01  0.3588009700186892E+01  0.3573881806041984E+01  0.3559809540897453E+01  0.3545792685712470E+01
  0.3531831022308683E+01  0.3517924333366821E+01  0.3504072402423318E+01  0.3490275013866941E+01  0.3476531952935428E+01
  0.3462843005712151E+01  0.3449207959122786E+01  0.3435626600931999E+01  0.3422098719740131E+01  0.3408624104979919E+01
  0.3395202546913221E+01  0.3381833836627735E+01  0.3368517766033762E+01  0.3355254127860965E+01  0.3342042715655134E+01
  0.3328883323774984E+01  0.3315775747388946E+01  0.3302719782471983E+01  0.3289715225802410E+01  0.3276761874958734E+01
  0.3263859528316507E+01  0.3251007985045177E+01  0.3238207045104970E+01  0.3225456509243776E+01  0.3212756178994049E+01
  0.3200105856669707E+01  0.3187505345363069E+01  0.3174954448941782E+01  0.3162452972045771E+01  0.3150000720084192E+01
  0.3137597499232416E+01  0.3125243116428997E+01  0.3112937379372681E+01  0.3100680096519401E+01  0.3088471077079300E+01
  0.3076310131013766E+01  0.3064197069032465E+01  0.3052131702590403E+01  0.3040113843884984E+01  0.3028143305853095E+01
  0.3016219902168183E+01  0.3004343447237368E+01  0.2992513756198542E+01  0.2980730644917502E+01  0.2968993929985074E+01
  0.2957303428714267E+01  0.2945658959137423E+01  0.2934060340003387E+01  0.2922507390774686E+01  0.2910999931624721E+01
  0.2899537783434964E+01  0.2888120767792171E+01  0.2876748706985603E+01  0.2865421424004267E+01  0.2854138742534154E+01
  0.2842900486955496E+01  0.2831706482340033E+01  0.2820556554448292E+01  0.2809450529726872E+01  0.2798388235305741E+01
  0.2787369498995554E+01  0.2776394149284960E+01  0.2765462015337942E+01  0.2754572926991155E+01  0.2743726714751281E+01
  0.2732923209792377E+01  0.2722162243953265E+01  0.2711443649734907E+01  0.2700767260297793E+01  0.2690132909459350E+01
  0.2679540431691356E+01  0.2668989662117360E+01  0.2658480436510115E+01  0.2648012591289024E+01  0.2637585963517599E+01
  0.2627200390900911E+01  0.2616855711783076E+01  0.2606551765144736E+01  0.2596288390600551E+01  0.2586065428396700E+01
  0.2575882719408402E+01  0.2565740105137431E+01  0.2555637427709653E+01  0.2545574529872568E+01  0.2535551254992864E+01
  0.2525567447053978E+01  0.2515622950653663E+01  0.2505717611001574E+01  0.2495851273916863E+01  0.2486023785825764E+01
  0.2476234993759220E+01  0.2466484745350491E+01  0.2456772888832789E+01  0.2447099273036906E+01  0.2437463747388871E+01
  0.2427866161907604E+01  0.2418306367202575E+01  0.2408784214471489E+01  0.2399299555497962E+01  0.2389852242649217E+01
  0.2380442128873782E+01  0.2371069067699210E+01  0.2361732913229792E+01  0.2352433520144282E+01  0.2343170743693649E+01
  0.2333944439698811E+01  0.2324754464548398E+01  0.2315600675196509E+01  0.2306482929160496E+01  0.2297401084518739E+01
  0.2288354999908436E+01  0.2279344534523408E+01  0.2270369548111903E+01  0.2261429900974418E+01  0.2252525453961514E+01
  0.2243656068471664E+01  0.2234821606449085E+01  0.2226021930381592E+01  0.2217256903298460E+01  0.2208526388768290E+01
  0.2199830250896889E+01  0.2191168354325143E+01  0.2182540564226926E+01  0.2173946746306992E+01  0.2165386766798884E+01
  0.2156860492462856E+01  0.2148367790583799E+01  0.2139908528969173E+01  0.2131482575946948E+01  0.2123089800363557E+01
  0.2114730071581858E+01  0.2106403259479091E+01  0.2098109234444860E+01  0.2089847867379116E+01  0.2081619029690146E+01
  0.2073422593292563E+01  0.2065258430605329E+01  0.2057126414549755E+01  0.2049026418547533E+01  0.2040958316518752E+01
  0.2032921982879953E+01  0.2024917292542164E+01  0.2016944120908948E+01  0.2009002343874479E+01  0.2001091837821595E+01
  0.1993212479619886E+01  0.1985364146623764E+01  0.1977546716670568E+01  0.1969760068078656E+01  0.1962004079645504E+01
  0.1954278630645836E+01  0.1946583600829728E+01  0.1938918870420749E+01  0.1931284320114086E+01  0.1923679831074696E+01
  0.1916105284935454E+01  0.1908560563795302E+01  0.1901045550217428E+01  0.1893560127227429E+01  0.1886104178311490E+01
  0.1878677587414574E+01  0.1871280238938615E+01  0.1863912017740716E+01  0.1856572809131360E+01  0.1849262498872622E+01
  0.1841980973176396E+01  0.1834728118702615E+01  0.1827503822557494E+01  0.1820307972291771E+01  0.1813140455898955E+01
  0.1806001161813585E+01  0.1798889978909493E+01  0.1791806796498073E+01  0.1784751504326557E+01  0.1777723992576302E+01
  0.1770724151861080E+01  0.1763751873225372E+01  0.1756807048142676E+01  0.1749889568513818E+01  0.1742999326665264E+01
  0.1736136215347452E+01  0.1729300127733113E+01  0.1722490957415620E+01  0.1715708598407320E+01  0.1708952945137891E+01
  0.1702223892452699E+01  0.1695521335611157E+01  0.1688845170285098E+01  0.1682195292557151E+01  0.1675571598919122E+01
  0.1668973986270385E+01  0.1662402351916272E+01  0.1655856593566483E+01  0.1649336609333485E+01  0.1642842297730935E+01
  0.1636373557672089E+01  0.1629930288468240E+01  0.1623512389827146E+01  0.1617119761851464E+01  0.1610752305037205E+01
  0.1604409920272176E+01  0.1598092508834444E+01  0.1591799972390794E+01  0.1585532212995204E+01  0.1579289133087314E+01
  0.1573070635490913E+01  0.1566876623412424E+01  0.1560707000439396E+01  0.1554561670539008E+01  0.1548440538056568E+01
  0.1542343507714027E+01  0.1536270484608498E+01  0.1530221374210779E+01  0.1524196082363873E+01  0.1518194515281534E+01
  0.1512216579546802E+01  0.1506262182110548E+01  0.1500331230290024E+01  0.1494423631767429E+01  0.1488539294588461E+01
  0.1482678127160891E+01  0.1476840038253141E+01  0.1471024936992858E+01  0.1465232732865499E+01  0.1459463335712928E+01
  0.1453716655732007E+01  0.1447992603473204E+01  0.1442291089839192E+01  0.1436612026083472E+01  0.1430955323808985E+01
  0.1425320894966737E+01  0.1419708651854431E+01  0.1414118507115100E+01  0.1408550373735749E+01  0.1403004165045996E+01
  0.1397479794716728E+01  0.1391977176758757E+01  0.1386496225521475E+01  0.1381036855691533E+01  0.1375598982291500E+01
  0.1370182520678547E+01  0.1364787386543130E+01  0.1359413495907678E+01  0.1354060765125280E+01  0.1348729110878389E+01
  0.1343418450177523E+01  0.1338128700359976E+01  0.1332859779088525E+01  0.1327611604350154E+01  0.1322384094454775E+01
  0.1317177168033958E+01  0.1311990744039662E+01  0.1306824741742978E+01  0.1301679080732867E+01  0.1296553680914909E+01
  0.1291448462510061E+01  0.1286363346053413E+01  0.1281298252392947E+01  0.1276253102688312E+01  0.1271227818409588E+01
  0.1266222321336073E+01  0.1261236533555062E+01  0.1256270377460629E+01  0.1251323775752428E+01  0.1246396651434481E+01
  0.1241488927813986E+01  0.1236600528500123E+01  0.1231731377402859E+01  0.1226881398731770E+01  0.1222050516994858E+01
  0.1217238656997376E+01  0.1212445743840661E+01  0.1207671702920962E+01  0.1202916459928284E+01  0.1198179940845229E+01
  0.1193462071945846E+01  0.1188762779794479E+01  0.1184081991244629E+01  0.1179419633437811E+01  0.1174775633802423E+01
  0.1170149920052618E+01  0.1165542420187172E+01  0.1160953062488369E+01  0.1156381775520883E+01  0.1151828488130668E+01
  0.1147293129443846E+01  0.1142775628865608E+01  0.1138275916079114E+01  0.1133793921044393E+01  0.1129329573997267E+01
  0.1124882805448247E+01  0.1120453546181465E+01  0.1116041727253589E+01  0.1111647279992754E+01  0.1107270135997491E+01
  0.1102910227135665E+01  0.1098567485543408E+01  0.1094241843624071E+01  0.1089933234047163E+01  0.1085641589747314E+01
  0.1081366843923220E+01  0.1077108930036607E+01  0.1072867781811197E+01  0.1068643333231681E+01  0.1064435518542674E+01
  0.1060244272247714E+01  0.1056069529108227E+01  0.1051911224142514E+01  0.1047769292624744E+01  0.1043643670083944E+01
  0.1039534292302995E+01  0.1035441095317631E+01  0.1031364015415444E+01  0.1027302989134899E+01  0.1023257953264332E+01
  0.1019228844840979E+01  0.1015215601149988E+01  0.1011218159723451E+01  0.1007236458339417E+01  0.1003270435020940E+01
  0.9993200280351034E+00  0.9953851758920632E+00  0.9914658173440860E+00  0.9875618913846045E+00  0.9836733372472583E+00
  0.9798000944049527E+00  0.9759421025689153E+00  0.9720993016877590E+00  0.9682716319465438E+00  0.9644590337658475E+00
  0.9606614478008378E+00  0.9568788149403508E+00  0.9531110763059629E+00  0.9493581732510852E+00  0.9456200473600400E+00
  0.9418966404471603E+00  0.9381878945558731E+00  0.9344937519578089E+00  0.9308141551518938E+00  0.9271490468634582E+00
  0.9234983700433431E+00  0.9198620678670150E+00  0.9162400837336758E+00  0.9126323612653856E+00  0.9090388443061826E+00
  0.9054594769212111E+00  0.9018942033958450E+00  0.8983429682348276E+00  0.8948057161613997E+00  0.8912823921164458E+00
  0.8877729412576282E+00  0.8842773089585423E+00  0.8807954408078581E+00  0.8773272826084761E+00  0.8738727803766816E+00
  0.8704318803413065E+00  0.8670045289428876E+00  0.8635906728328351E+00  0.8601902588725991E+00  0.8568032341328465E+00
  0.8534295458926282E+00  0.8500691416385660E+00  0.8467219690640283E+00  0.8433879760683199E+00  0.8400671107558630E+00
  0.8367593214353972E+00  0.8334645566191674E+00  0.8301827650221230E+00  0.8269138955611189E+00  0.8236578973541210E+00
  0.8204147197194086E+00  0.8171843121747878E+00  0.8139666244368021E+00  0.8107616064199529E+00  0.8075692082359099E+00
  0.8043893801927430E+00  0.8012220727941390E+00  0.7980672367386369E+00  0.7949248229188502E+00  0.7917947824207103E+00
  0.7886770665226959E+00  0.7855716266950764E+00  0.7824784145991531E+00  0.7793973820865077E+00  0.7763284811982458E+00
  0.7732716641642526E+00  0.7702268834024446E+00  0.7671940915180294E+00  0.7641732413027604E+00  0.7611642857342071E+00
  0.7581671779750138E+00  0.7551818713721705E+00  0.7522083194562850E+00  0.7492464759408557E+00  0.7462962947215483E+00
  0.7433577298754742E+00  0.7404307356604737E+00  0.7375152665144021E+00  0.7346112770544134E+00  0.7317187220762533E+00
  0.7288375565535514E+00  0.7259677356371158E+00  0.7231092146542314E+00  0.7202619491079626E+00  0.7174258946764531E+00
  0.7146010072122341E+00  0.7117872427415304E+00  0.7089845574635760E+00  0.7061929077499220E+00  0.7034122501437561E+00
  0.7006425413592189E+00  0.6978837382807284E+00  0.6951357979622990E+00  0.6923986776268708E+00  0.6896723346656362E+00
  0.6869567266373711E+00  0.6842518112677692E+00  0.6815575464487765E+00  0.6788738902379283E+00  0.6762008008576920E+00
  0.6735382366948072E+00  0.6708861562996338E+00  0.6682445183854958E+00  0.6656132818280338E+00  0.6629924056645549E+00
  0.6603818490933875E+00  0.6577815714732393E+00  0.6551915323225531E+00  0.6526116913188690E+00  0.6500420082981877E+00
  0.6474824432543360E+00  0.6449329563383325E+00  0.6423935078577582E+00  0.6398640582761279E+00  0.6373445682122643E+00
  0.6348349984396719E+00  0.6323353098859182E+00  0.6298454636320102E+00  0.6273654209117774E+00  0.6248951431112557E+00
  0.6224345917680743E+00  0.6199837285708411E+00  0.6175425153585342E+00  0.6151109141198927E+00  0.6126888869928115E+00
  0.6102763962637344E+00  0.6078734043670531E+00  0.6054798738845055E+00  0.6030957675445768E+00  0.6007210482219019E+00
  0.5983556789366705E+00  0.5959996228540322E+00  0.5936528432835044E+00  0.5913153036783818E+00  0.5889869676351501E+00
  0.5866677988928942E+00  0.5843577613327158E+00  0.5820568189771484E+00  0.5797649359895767E+00  0.5774820766736510E+00
  0.5752082054727140E+00  0.5729432869692179E+00  0.5706872858841504E+00  0.5684401670764585E+00  0.5662018955424769E+00
  0.5639724364153527E+00  0.5617517549644770E+00  0.5595398165949134E+00  0.5573365868468326E+00  0.5551420313949407E+00
  0.5529561160479182E+00  0.5507788067478516E+00  0.5486100695696734E+00  0.5464498707205947E+00  0.5442981765395505E+00
  0.5421549534966335E+00  0.5400201681925380E+00  0.5378937873580008E+00  0.5357757778532459E+00  0.5336661066674242E+00
  0.5315647409180622E+00  0.5294716478505035E+00  0.5273867948373601E+00  0.5253101493779532E+00  0.5232416790977666E+00
  0.5211813517478914E+00  0.5191291352044779E+00  0.5170849974681809E+00  0.5150489066636166E+00  0.5130208310388069E+00
  0.5110007389646350E+00  0.5089885989342949E+00  0.5069843795627454E+00  0.5049880495861612E+00  0.5029995778613857E+00
  0.5010189333653852E+00  0.4990460851947021E+00  0.4970810025649065E+00  0.4951236548100533E+00  0.4931740113821323E+00
  0.4912320418505254E+00  0.4892977159014564E+00  0.4873710033374488E+00  0.4854518740767761E+00  0.4835402981529172E+00
  0.4816362457140075E+00  0.4797396870222945E+00  0.4778505924535879E+00  0.4759689324967120E+00  0.4740946777529578E+00
  0.4722277989355352E+00  0.4703682668690206E+00  0.4685160524888093E+00  0.4666711268405632E+00  0.4648334610796608E+00
  0.4630030264706411E+00  0.4611797943866551E+00  0.4593637363089075E+00  0.4575548238261040E+00  0.4557530286338914E+00
  0.4539583225343042E+00  0.4521706774352018E+00  0.4503900653497107E+00  0.4486164583956608E+00  0.4468498287950251E+00
  0.4450901488733515E+00  0.4433373910591987E+00  0.4415915278835673E+00  0.4398525319793313E+00  0.4381203760806626E+00
  0.4363950330224624E+00  0.4346764757397811E+00  0.4329646772672439E+00  0.4312596107384662E+00  0.4295612493854767E+00
  0.4278695665381279E+00  0.4261845356235108E+00  0.4245061301653647E+00  0.4228343237834850E+00  0.4211690901931266E+00
  0.4195104032044066E+00  0.4178582367217019E+00  0.4162125647430470E+00  0.4145733613595227E+00  0.4129406007546493E+00
  0.4113142572037692E+00  0.4096943050734306E+00  0.4080807188207647E+00  0.4064734729928628E+00  0.4048725422261443E+00
  0.4032779012457254E+00  0.4016895248647810E+00  0.4001073879839045E+00  0.3985314655904605E+00  0.3969617327579352E+00
  0.3953981646452818E+00  0.3938407364962602E+00  0.3922894236387726E+00  0.3907442014841953E+00  0.3892050455267020E+00
  0.3876719313425853E+00  0.3861448345895707E+00  0.3846237310061263E+00  0.3831085964107659E+00  0.3815994067013457E+00
  0.3800961378543571E+00  0.3785987659242108E+00  0.3771072670425180E+00  0.3756216174173599E+00  0.3741417933325561E+00
  0.3726677711469222E+00  0.3711995272935227E+00  0.3697370382789167E+00  0.3682802806823935E+00  0.3668292311552050E+00
  0.3653838664197868E+00  0.3639441632689746E+00  0.3625100985652091E+00  0.3610816492397355E+00  0.3596587922917938E+00
  0.3582415047878000E+00  0.3568297638605199E+00  0.3554235467082313E+00  0.3540228305938802E+00  0.3526275928442256E+00
  0.3512378108489751E+00  0.3498534620599124E+00  0.3484745239900109E+00  0.3471009742125418E+00  0.3457327903601684E+00
  0.3443699501240323E+00  0.3430124312528249E+00  0.3416602115518538E+00  0.3403132688820919E+00  0.3389715811592180E+00
  0.3376351263526473E+00  0.3363038824845441E+00  0.3349778276288303E+00  0.3336569399101732E+00  0.3323411975029673E+00
  0.3310305786302987E+00  0.3297250615629000E+00  0.3284246246180872E+00  0.3271292461586871E+00  0.3258389045919485E+00
  0.3245535783684386E+00  0.3232732459809286E+00  0.3219978859632591E+00  0.3207274768891939E+00  0.3194619973712596E+00
  0.3182014260595649E+00  0.3169457416406096E+00  0.3156949228360719E+00  0.3144489484015845E+00  0.3132077971254902E+00
  0.3119714478275826E+00  0.3107398793578274E+00  0.3095130705950690E+00  0.3082910004457159E+00  0.3070736478424096E+00
  0.3058609917426768E+00  0.3046530111275579E+00  0.3034496850002212E+00  0.3022509923845556E+00  0.3010569123237420E+00
  0.2998674238788090E+00  0.2986825061271621E+00  0.2975021381610981E+00  0.2963262990862946E+00  0.2951549680202807E+00
  0.2939881240908827E+00  0.2928257464346519E+00  0.2916678141952668E+00  0.2905143065219137E+00  0.2893652025676454E+00
  0.2882204814877157E+00  0.2870801224378892E+00  0.2859441045727296E+00  0.2848124070438610E+00  0.2836850089982075E+00
  0.2825618895762045E+00  0.2814430279099883E+00  0.2803284031215577E+00  0.2792179943209109E+00  0.2781117806041550E+00
  0.2770097410515913E+00  0.2759118547257705E+00  0.2748181006695235E+00  0.2737284579039642E+00  0.2726429054264643E+00
  0.2715614222085987E+00  0.2704839871940661E+00  0.2694105792965770E+00  0.2683411773977153E+00  0.2672757603447711E+00
  0.2662143069485420E+00  0.2651567959811065E+00  0.2641032061735677E+00  0.2630535162137644E+00  0.2620077047439560E+00
  0.2609657503584729E+00  0.2599276316013373E+00  0.2588933269638550E+00  0.2578628148821744E+00  0.2568360737348130E+00
  0.2558130818401553E+00  0.2547938174539167E+00  0.2537782587665774E+00  0.2527663839007825E+00  0.2517581709087138E+00
  0.2507535977694252E+00  0.2497526423861501E+00  0.2487552825835732E+00  0.2477614961050744E+00  0.2467712606099371E+00
  0.2457845536705261E+00  0.2448013527694347E+00  0.2438216352965997E+00  0.2428453785463823E+00  0.2418725597146224E+00
  0.2409031558956574E+00  0.2399371440793132E+00  0.2389745011478622E+00  0.2380152038729546E+00  0.2370592289125151E+00
  0.2361065528076155E+00  0.2351571519793131E+00  0.2342110027254648E+00  0.2332680812175121E+00  0.2323283634972370E+00
  0.2313918254734942E+00  0.2304584429189168E+00  0.2295281914665947E+00  0.2286010466067323E+00  0.2276769836832801E+00
  0.2267559778905461E+00  0.2258380042697843E+00  0.2249230377057656E+00  0.2240110529233269E+00  0.2231020244839057E+00
  0.2221959267820560E+00  0.2212927340419515E+00  0.2203924203138760E+00  0.2194949594706993E+00  0.2186003252043484E+00
  0.2177084910222676E+00  0.2168194302438733E+00  0.2159331159970070E+00  0.2150495212143846E+00  0.2141686186300491E+00
  0.2132903807758237E+00  0.2124147799777757E+00  0.2115417883526839E+00  0.2106713778045217E+00  0.2098035200209530E+00
  0.2089381864698460E+00  0.2080753483958108E+00  0.2072149768167572E+00  0.2063570425204855E+00  0.2055015160613078E+00
  0.2046483677567044E+00  0.2037975676840229E+00  0.2029490856772216E+00  0.2021028913236620E+00  0.2012589539609554E+00
  0.2004172426738709E+00  0.1995777262913062E+00  0.1987403733833291E+00  0.1979051522582952E+00  0.1970720309600468E+00
  0.1962409772652013E+00  0.1954119586805309E+00  0.1945849424404476E+00  0.1937598955045934E+00  0.1929367845555460E+00
  0.1921155759966485E+00  0.1912962359499695E+00  0.1904787302544004E+00  0.1896630244639025E+00  0.1888490838459063E+00
  0.1880368733798796E+00  0.1872263577560667E+00  0.1864175013744121E+00  0.1856102683436780E+00  0.1848046224807671E+00
  0.1840005273102571E+00  0.1831979460641626E+00  0.1823968416819356E+00  0.1815971768107103E+00  0.1807989138058124E+00
  0.1800020147315401E+00  0.1792064413622300E+00  0.1784121551836238E+00  0.1776191173945447E+00  0.1768272889089037E+00
  0.1760366303580429E+00  0.1752471020934365E+00  0.1744586641897594E+00  0.1736712764483438E+00  0.1728848984010346E+00
  0.1720994893144628E+00  0.1713150081947531E+00  0.1705314137926797E+00  0.1697486646092912E+00  0.1689667189020197E+00
  0.1681855346912908E+00  0.1674050697676563E+00  0.1666252816994628E+00  0.1658461278410801E+00  0.1650675653417035E+00
  0.1642895511547524E+00  0.1635120420478819E+00  0.1627349946136299E+00  0.1619583652807156E+00  0.1611821103260114E+00
  0.1604061858872102E+00  0.1596305479762012E+00  0.1588551524931819E+00  0.1580799552415221E+00  0.1573049119433984E+00
  0.1565299782562250E+00  0.1557551097898919E+00  0.1549802621248390E+00  0.1542053908309781E+00  0.1534304514874864E+00
  0.1526553997034865E+00  0.1518801911396349E+00  0.1511047815306332E+00  0.1503291267086807E+00  0.1495531826278856E+00
  0.1487769053896492E+00  0.1480002512690371E+00  0.1472231767421558E+00  0.1464456385145414E+00  0.1456675935505795E+00
  0.1448889991039597E+00  0.1441098127491816E+00  0.1433299924141149E+00  0.1425494964136237E+00  0.1417682834842577E+00
  0.1409863128200168E+00  0.1402035441091878E+00  0.1394199375722536E+00  0.1386354540008754E+00  0.1378500547979393E+00
  0.1370637020186616E+00  0.1362763584127472E+00  0.1354879874675824E+00  0.1346985534524552E+00  0.1339080214637787E+00
  0.1331163574713042E+00  0.1323235283652932E+00  0.1315295020046292E+00  0.1307342472658324E+00  0.1299377340929503E+00
  0.1291399335482819E+00  0.1283408178638975E+00  0.1275403604939100E+00  0.1267385361674481E+00  0.1259353209422775E+00
  0.1251306922590180E+00  0.1243246289958901E+00  0.1235171115239311E+00  0.1227081217626065E+00  0.1218976432357481E+00
  0.1210856611277345E+00  0.1202721623398371E+00  0.1194571355466381E+00  0.1186405712524359E+00  0.1178224618475334E+00
  0.1170028016643153E+00  0.1161815870330054E+00  0.1153588163369951E+00  0.1145344900676289E+00  0.1137086108783296E+00
  0.1128811836379405E+00  0.1120522154831583E+00  0.1112217158699276E+00  0.1103896966236646E+00  0.1095561719881703E+00
  0.1087211586730979E+00  0.1078846758998284E+00  0.1070467454456127E+00  0.1062073916858319E+00  0.1053666416342252E+00
  0.1045245249809406E+00  0.1036810741282535E+00  0.1028363242238000E+00  0.1019903131911809E+00  0.1011430817577752E+00
  0.1002946734796227E+00  0.9944513476321817E-01  0.9859451488407943E-01  0.9774286600193495E-01  0.9689024317239980E-01
  0.9603670435499523E-01  0.9518231041738330E-01  0.9432712513568810E-01  0.9347121519077790E-01  0.9261465016039780E-01
  0.9175750250703976E-01  0.9089984756144831E-01  0.9004176350167217E-01  0.8918333132757243E-01  0.8832463483071627E-01
  0.8746576055958744E-01  0.8660679778006353E-01  0.8574783843110949E-01  0.8488897707566379E-01  0.8403031084669009E-01
  0.8317193938839247E-01  0.8231396479259862E-01  0.8145649153032707E-01  0.8059962637857795E-01  0.7974347834238887E-01
  0.7888815857221777E-01  0.7803378027673179E-01  0.7718045863108913E-01  0.7632831068081886E-01  0.7547745524141874E-01
  0.7462801279380681E-01  0.7378010537576850E-01  0.7293385646956940E-01  0.7208939088590252E-01  0.7124683464436424E-01
  0.7040631485065993E-01  0.6956795957075118E-01  0.6873189770217798E-01  0.6789825884278787E-01  0.6706717315712382E-01
  0.6623877124072995E-01  0.6541318398264326E-01  0.6459054242634502E-01  0.6377097762945834E-01  0.6295462052248259E-01
  0.6214160176685520E-01  0.6133205161264585E-01  0.6052609975618441E-01  0.5972387519792545E-01  0.5892550610086065E-01
  0.5813111964977909E-01  0.5734084191168800E-01  0.5655479769769036E-01  0.5577311042662217E-01  0.5499590199074404E-01
  0.5422329262377702E-01  0.5345540077156304E-01  0.5269234296562757E-01  0.5193423369991128E-01  0.5118118531092326E-01
  0.5043330786156695E-01  0.4969070902887059E-01  0.4895349399584424E-01  0.4822176534767564E-01  0.4749562297245612E-01
  0.4677516396662353E-01  0.4606048254528444E-01  0.4535166995756818E-01  0.4464881440715015E-01  0.4395200097806245E-01
  0.4326131156589460E-01  0.4257682481447350E-01  0.4189861605809348E-01  0.4122675726934655E-01  0.4056131701259557E-01
  0.3990236040310922E-01  0.3924994907186354E-01  0.3860414113600179E-01  0.3796499117492372E-01  0.3733255021196562E-01
  0.3670686570161506E-01  0.3608798152218946E-01  0.3547593797389498E-01  0.3487077178217216E-01  0.3427251610621561E-01
  0.3368120055255212E-01  0.3309685119354065E-01  0.3251949059065945E-01  0.3194913782242343E-01  0.3138580851677717E-01
  0.3082951488779298E-01  0.3028026577650339E-01  0.2973806669568416E-01  0.2920291987840458E-01  0.2867482433015448E-01
  0.2815377588435236E-01  0.2763976726103813E-01  0.2713278812855214E-01  0.2663282516799707E-01  0.2613986214028318E-01
  0.2565387995555251E-01  0.2517485674478326E-01  0.2470276793337138E-01  0.2423758631649274E-01  0.2377928213604804E-01
  0.2332782315899937E-01  0.2288317475690585E-01  0.2244529998647433E-01  0.2201415967094321E-01  0.2158971248212108E-01
  0.2117191502290923E-01  0.2076072191014172E-01  0.2035608585758074E-01  0.1995795775891397E-01  0.1956628677060313E-01
  0.1918102039444367E-01  0.1880210455969612E-01  0.1842948370466328E-01  0.1806310085758683E-01  0.1770289771675071E-01
  0.1734881472967851E-01  0.1700079117132468E-01  0.1665876522116284E-01  0.1632267403908179E-01  0.1599245384000623E-01
  0.1566803996716768E-01  0.1534936696395376E-01  0.1503636864427443E-01  0.1472897816138660E-01  0.1442712807512709E-01
  0.1413075041750698E-01  0.1383977675662967E-01  0.1355413825889634E-01  0.1327376574947162E-01  0.1299858977098474E-01
  0.1272854064044666E-01  0.1246354850437048E-01  0.1220354339208362E-01  0.1194845526722664E-01  0.1169821407743790E-01
  0.1145274980222471E-01  0.1121199249902829E-01  0.1097587234749033E-01  0.1074431969193480E-01  0.1051726508207875E-01
  0.1029463931199148E-01  0.1007637345732151E-01  0.9862398910815084E-02  0.9652647416150892E-02  0.9447051100117485E-02
  0.9245542503163291E-02  0.9048054608348897E-02  0.8854520868733135E-02  0.8664875233227211E-02  0.8479052170950003E-02
  0.8296986694120496E-02  0.8118614379523043E-02  0.7943871388582855E-02  0.7772694486087945E-02  0.7605021057596769E-02
  0.7440789125568495E-02  0.7279937364255158E-02  0.7122405113393961E-02  0.6968132390737847E-02  0.6817059903463832E-02
  0.6669129058496610E-02  0.6524281971785920E-02  0.6382461476575734E-02  0.6243611130702672E-02  0.6107675222960633E-02
  0.5974598778568502E-02  0.5844327563777413E-02  0.5716808089652254E-02  0.5591987615063562E-02  0.5469814148923197E-02
  0.5350236451698181E-02  0.5233204036235515E-02  0.5118667167929841E-02  0.5006576864266318E-02  0.4896884893768849E-02
  0.4789543774383743E-02  0.4684506771328380E-02  0.4581727894433060E-02  0.4481161895003574E-02  0.4382764262231512E-02
  0.4286491219178483E-02  0.4192299718358853E-02  0.4100147436946126E-02  0.4009992771626000E-02  0.3921794833119283E-02
  0.3835513440396605E-02  0.3751109114605778E-02  0.3668543072733046E-02  0.3587777221017191E-02  0.3508774148135769E-02
  0.3431497118181754E-02  0.3355910063448022E-02  0.3281977577036326E-02  0.3209664905307079E-02  0.3138937940185369E-02
  0.3069763211337577E-02  0.3002107878233243E-02  0.2935939722105341E-02  0.2871227137821741E-02  0.2807939125680479E-02
  0.2746045283140036E-02  0.2685515796496251E-02  0.2626321432516056E-02  0.2568433530038111E-02  0.2511823991550097E-02
  0.2456465274751483E-02  0.2402330384110275E-02  0.2349392862421962E-02  0.2297626782378315E-02  0.2247006738152936E-02
  0.2197507837010714E-02  0.2149105690947322E-02  0.2101776408364716E-02  0.2055496585788502E-02  0.2010243299632012E-02
  0.1965994098012468E-02  0.1922726992623447E-02  0.1880420450668015E-02  0.1839053386856587E-02  0.1798605155473089E-02
  0.1759055542512770E-02  0.1720384757894867E-02  0.1682573427753041E-02  0.1645602586806006E-02  0.1609453670810946E-02
  0.1574108509101844E-02  0.1539549317214584E-02  0.1505758689600759E-02  0.1472719592431551E-02  0.1440415356493312E-02
  0.1408829670175848E-02  0.1377946572554602E-02  0.1347750446567537E-02  0.1318226012287599E-02  0.1289358320291208E-02
  0.1261132745123409E-02  0.1233534978860009E-02  0.1206551024766838E-02  0.1180167191056407E-02  0.1154370084741938E-02
  0.1129146605588644E-02  0.1104483940162206E-02  0.1080369555974065E-02  0.1056791195723369E-02  0.1033736871634998E-02
  0.1011194859893352E-02  0.9891536951711908E-03  0.9676021652531394E-03  0.9465293057529921E-03  0.9259243949242280E-03
  0.9057769485630016E-03  0.8860767150026728E-03  0.8668136701991693E-03  0.8479780129062502E-03  0.8295601599396965E-03
  0.8115507415296081E-03  0.7939405967596893E-03  0.7767207690926078E-03  0.7598825019804059E-03  0.7434172345588577E-03
  0.7273165974247323E-03  0.7115724084949280E-03  0.6961766689462999E-03  0.6811215592351427E-03  0.6663994351951641E-03
  0.6520028242128777E-03  0.6379244214791998E-03  0.6241570863162030E-03  0.6106938385778053E-03  0.5975278551233346E-03
  0.5846524663627305E-03  0.5720611528723143E-03  0.5597475420799611E-03  0.5477054050185298E-03  0.5359286531463899E-03
  0.5244113352339886E-03  0.5131476343152305E-03  0.5021318647026616E-03  0.4913584690652232E-03  0.4808220155676011E-03
  0.4705171950699595E-03  0.4604388183870253E-03  0.4505818136054730E-03  0.4409412234584751E-03  0.4315122027563965E-03
  0.4222900158726030E-03  0.4132700342833249E-03  0.4044477341605471E-03  0.3958186940169351E-03  0.3873785924017695E-03
  0.3791232056469582E-03  0.3710484056620794E-03  0.3631501577775330E-03  0.3554245186348665E-03  0.3478676341233196E-03
  0.3404757373616550E-03  0.3332451467243963E-03  0.3261722639115505E-03  0.3192535720609786E-03  0.3124856339024723E-03
  0.3058650899527766E-03  0.2993886567506216E-03  0.2930531251310311E-03  0.2868553585380151E-03  0.2807922913748917E-03
  0.2748609273914578E-03  0.2690583381071924E-03  0.2633816612697920E-03  0.2578280993482445E-03  0.2523949180597241E-03
  0.2470794449296164E-03  0.2418790678839158E-03  0.2367912338733404E-03  0.2318134475284730E-03  0.2269432698452646E-03
  0.2221783169002275E-03  0.2175162585946997E-03  0.2129548174275239E-03  0.2084917672955592E-03  0.2041249323213750E-03
  0.1998521857075588E-03  0.1956714486170553E-03  0.1915806890789591E-03  0.1875779209191935E-03  0.1836612027155320E-03
  0.1798286367764411E-03  0.1760783681431866E-03  0.1724085836147020E-03  0.1688175107947284E-03  0.1653034171606910E-03
  0.1618646091538764E-03  0.1584994312903873E-03  0.1552062652924395E-03  0.1519835292395435E-03  0.1488296767391019E-03
  0.1457431961160186E-03  0.1427226096208623E-03  0.1397664726561801E-03  0.1368733730205580E-03  0.1340419301700090E-03
  0.1312707944963084E-03  0.1285586466218933E-03  0.1259041967109484E-03  0.1233061837963044E-03  0.1207633751217935E-03
  0.1182745654997218E-03  0.1158385766830924E-03  0.1134542567522597E-03  0.1111204795156776E-03  0.1088361439244234E-03
  0.1066001735001843E-03  0.1044115157763892E-03  0.1022691417521920E-03  0.1001720453590172E-03  0.9811924293936649E-04
  0.9610977273761170E-04  0.9414269440250646E-04  0.9221708850112902E-04  0.9033205604401578E-04  0.8848671802120780E-04
  0.8668021494896938E-04  0.8491170642693794E-04  0.8318037070544835E-04  0.8148540426281655E-04  0.7982602139233839E-04
  0.7820145379878322E-04  0.7661095020417144E-04  0.7505377596260766E-04  0.7352921268397005E-04  0.7203655786624941E-04
  0.7057512453633790E-04  0.6914424089906904E-04  0.6774324999432035E-04  0.6637150936199688E-04  0.6502839071470355E-04
  0.6371327961793703E-04  0.6242557517761654E-04  0.6116468973479021E-04  0.5993004856734661E-04  0.5872108959856823E-04
  0.5753726311237060E-04  0.5637803147507508E-04  0.5524286886355706E-04  0.5413126099962567E-04  0.5304270489049434E-04
  0.5197670857519158E-04  0.5093279087678524E-04  0.4991048116027726E-04  0.4890931909603910E-04  0.4792885442866633E-04
  0.4696864675111417E-04  0.4602826528400547E-04  0.4510728865997829E-04  0.4420530471296831E-04  0.4332191027230138E-04
  0.4245671096149206E-04  0.4160932100163438E-04  0.4077936301928202E-04  0.3996646785871216E-04  0.3917027439847113E-04
  0.3839042937210182E-04  0.3762658719296097E-04  0.3687840978302460E-04  0.3614556640559475E-04  0.3542773350181355E-04
  0.3472459453090010E-04  0.3403583981402126E-04  0.3336116638171285E-04  0.3270027782476856E-04  0.3205288414852003E-04
  0.3141870163042438E-04  0.3079745268088549E-04  0.3018886570723514E-04  0.2959267498080000E-04  0.2900862050698186E-04
  0.2843644789828405E-04  0.2787590825021325E-04  0.2732675801999444E-04  0.2678875890802836E-04  0.2626167774203441E-04
  0.2574528636381090E-04  0.2523936151855848E-04  0.2474368474670241E-04  0.2425804227815914E-04  0.2378222492898968E-04
  0.2331602800038556E-04  0.2285925117993365E-04  0.2241169844510610E-04  0.2197317796892509E-04  0.2154350202775407E-04
  0.2112248691116313E-04  0.2070995283382347E-04  0.2030572384938344E-04  0.1990962776628148E-04  0.1952149606544963E-04
  0.1914116381986618E-04  0.1876846961591357E-04  0.1840325547650200E-04  0.1804536678591617E-04  0.1769465221634638E-04
  0.1735096365606644E-04  0.1701415613921994E-04  0.1668408777717701E-04  0.1636061969142774E-04  0.1604361594797500E-04
  0.1573294349319471E-04  0.1542847209112770E-04  0.1513007426217173E-04  0.1483762522314162E-04  0.1455100282866654E-04
  0.1427008751389279E-04  0.1399476223846361E-04  0.1372491243174578E-04  0.1346042593927643E-04  0.1320119297039940E-04
  0.1294710604706744E-04  0.1269805995378042E-04  0.1245395168863680E-04  0.1221468041547049E-04  0.1198014741704978E-04
  0.1175025604931463E-04  0.1152491169662702E-04  0.1130402172801349E-04  0.1108749545437573E-04  0.1087524408664772E-04
  0.1066718069487901E-04  0.1046322016822145E-04  0.1026327917579992E-04  0.1006727612844729E-04  0.9875131141283570E-05
  0.9686765997120051E-05  0.9502104110670294E-05  0.9321070493549162E-05  0.9143591720043146E-05  0.8969595893633233E-05
  0.8799012614254139E-05  0.8631772946273432E-05  0.8467809387174046E-05  0.8307055836924238E-05  0.8149447568019522E-05
  0.7994921196182213E-05  0.7843414651702762E-05  0.7694867151408665E-05  0.7549219171248040E-05  0.7406412419471950E-05
   29     63.546         3.6150    fcc     
  0.0000000000000000E+00 -0.1357527207849252E-01 -0.2709593600970328E-01 -0.4056209710486969E-01 -0.5397386067523069E-01
 -0.6733133203202357E-01 -0.8063461648648707E-01 -0.9388381934985990E-01 -0.1070790459333794E+00 -0.1202204015482852E+00
 -0.1333079915058137E+00 -0.1463419211172045E+00 -0.1593222956936962E+00 -0.1722492205465255E+00 -0.1851228009869320E+00
 -0.1979431423261535E+00 -0.2107103498754278E+00 -0.2234245289459942E+00 -0.2360857848490903E+00 -0.2486942228959540E+00
 -0.2612499483978248E+00 -0.2737530666659392E+00 -0.2862036830115372E+00 -0.2986019027458557E+00 -0.3109478311801337E+00
 -0.3232415736256097E+00 -0.3354832353935211E+00 -0.3476729217951071E+00 -0.3598107381416048E+00 -0.3718967897442533E+00
 -0.3839311819142912E+00 -0.3959140199629559E+00 -0.4078454092014864E+00 -0.4197254549411195E+00 -0.4315542624930955E+00
 -0.4433319371686516E+00 -0.4550585842790257E+00 -0.4667343091354571E+00 -0.4783592170491828E+00 -0.4899334133314421E+00
 -0.5014570032934731E+00 -0.5129300922465133E+00 -0.5243527855018015E+00 -0.5357251883705768E+00 -0.5470474061640758E+00
 -0.5583195441935382E+00 -0.5695417077702012E+00 -0.5807140022053038E+00 -0.5918365328100836E+00 -0.6029094048957794E+00
 -0.6139327237736293E+00 -0.6249065947548715E+00 -0.6358311231507441E+00 -0.6467064142724862E+00 -0.6575325734313348E+00
 -0.6683097059385293E+00 -0.6790379171053067E+00 -0.6897173122429070E+00 -0.7003479966625665E+00 -0.7109300756755247E+00
 -0.7214636545930198E+00 -0.7319488387262896E+00 -0.7423857333865727E+00 -0.7527744438851074E+00 -0.7631150755331313E+00
 -0.7734077336418834E+00 -0.7836525235226022E+00 -0.7938495504865251E+00 -0.8039989198448908E+00 -0.8141007369089373E+00
 -0.8241551069899034E+00 -0.8341621353990267E+00 -0.8441219274475459E+00 -0.8540345884466997E+00 -0.8639002237077250E+00
 -0.8737189385418610E+00 -0.8834908382603464E+00 -0.8932160281744187E+00 -0.9028946135953158E+00 -0.9125266998342766E+00
 -0.9221123922025394E+00 -0.9316517960113426E+00 -0.9411450165719240E+00 -0.9505921591955220E+00 -0.9599933291933752E+00
 -0.9693486318767208E+00 -0.9786581725567984E+00 -0.9879220565448459E+00 -0.9971403891521007E+00 -0.1006313275689802E+01
 -0.1015440821469188E+01 -0.1024523131801496E+01 -0.1033560311997966E+01 -0.1042552467369835E+01 -0.1051499703228341E+01
 -0.1060402124884722E+01 -0.1069259837650219E+01 -0.1078072946836067E+01 -0.1086841557753505E+01 -0.1095565775713773E+01
 -0.1104245706028108E+01 -0.1112881454007747E+01 -0.1121473124963931E+01 -0.1130020824207896E+01 -0.1138524657050881E+01
 -0.1146984728804125E+01 -0.1155401144778865E+01 -0.1163774010286341E+01 -0.1172103430637789E+01 -0.1180389511144448E+01
